{"learner":{"attributes":{"scikit_learn":"{\"_estimator_type\": \"regressor\"}"},"feature_names":["AverageRainingDays","clonesize","AverageOfLowerTRange","AverageOfUpperTRange","honeybee","osmia","bumbles","andrena"],"feature_types":["float","float","float","float","float","float","float","float"],"gradient_booster":{"model":{"gbtree_model_param":{"num_parallel_tree":"1","num_trees":"100"},"iteration_indptr":[0,1,2,3,4,5,6,7,8,9,10,11,12,13,14,15,16,17,18,19,20,21,22,23,24,25,26,27,28,29,30,31,32,33,34,35,36,37,38,39,40,41,42,43,44,45,46,47,48,49,50,51,52,53,54,55,56,57,58,59,60,61,62,63,64,65,66,67,68,69,70,71,72,73,74,75,76,77,78,79,80,81,82,83,84,85,86,87,88,89,90,91,92,93,94,95,96,97,98,99,100],"tree_info":[0,0,0,0,0,0,0,0,0,0,0,0,0,0,0,0,0,0,0,0,0,0,0,0,0,0,0,0,0,0,0,0,0,0,0,0,0,0,0,0,0,0,0,0,0,0,0,0,0,0,0,0,0,0,0,0,0,0,0,0,0,0,0,0,0,0,0,0,0,0,0,0,0,0,0,0,0,0,0,0,0,0,0,0,0,0,0,0,0,0,0,0,0,0,0,0,0,0,0,0],"trees":[{"base_weights":[4.435352E-5,7.0176227E2,-7.41135E2,1.42663E3,-7.907516E1,-1.4498787E2,-1.4071389E3,4.1379532E2,1.6203907E3,3.1359457E2,-1.3398488E3,-1.3283107E3,2.57171E2,-8.300695E2,-1.8909896E3,1.07981575E2,7.118961E2,9.948961E2,1.8057344E3,-6.9764825E2,4.6615506E2,-7.959871E2,-1.6744823E3,1.5891699E2,-1.4499054E3,3.7275154E1,7.3648883E2,-4.400526E2,-1.1344061E3,-2.816445E2,-1.6589995E3,3.0861685E1,-6.006603E0,8.5758026E1,-1.0813916E1,8.090534E1,1.309926E2,1.6025548E2,2.20663E2,-4.5446194E1,-9.453933E1,8.3160355E1,3.898629E0,-9.29334E1,-1.6361303E1,-1.8058826E2,-8.665444E1,7.8659935E1,-3.1251026E1,-1.5292703E2,-1.4224122E0,2.396121E1,-1.3508171E1,2.3905256E1,8.611701E1,-6.2399403E1,8.6237305E-1,-1.5267332E2,-6.823736E1,-1.18063255E2,-1.9982675E2],"categories":[],"categories_nodes":[],"categories_segments":[],"categories_sizes":[],"default_left":[0,0,0,0,0,0,0,0,0,0,0,0,0,0,0,0,0,0,0,0,0,0,0,0,0,0,0,0,0,0,0,0,0,0,0,0,0,0,0,0,0,0,0,0,0,0,0,0,0,0,0,0,0,0,0,0,0,0,0,0,0],"id":0,"left_children":[1,3,5,7,9,11,13,15,17,19,21,23,25,27,29,31,33,35,37,39,41,43,45,47,49,51,53,55,57,-1,59,-1,-1,-1,-1,-1,-1,-1,-1,-1,-1,-1,-1,-1,-1,-1,-1,-1,-1,-1,-1,-1,-1,-1,-1,-1,-1,-1,-1,-1,-1],"loss_changes":[3.2402266E8,1.8123405E8,1.2009797E8,3.190656E7,7.715565E7,7.695889E7,3.8358144E7,2.475701E6,1.4317952E7,1.868402E7,5.400916E6,7.644808E6,1.2725947E7,7.453464E6,1.1859168E7,5.2428156E5,1.7652645E6,9.30764E5,5.097888E6,5.343265E5,1.6202828E7,1.19715E6,7.70716E5,1.4294466E6,4.308072E6,2.9617968E6,2.150932E6,2.5638165E6,5.519952E6,0E0,8.027616E6,0E0,0E0,0E0,0E0,0E0,0E0,0E0,0E0,0E0,0E0,0E0,0E0,0E0,0E0,0E0,0E0,0E0,0E0,0E0,0E0,0E0,0E0,0E0,0E0,0E0,0E0,0E0,0E0,0E0,0E0],"parents":[2147483647,0,0,1,1,2,2,3,3,4,4,5,5,6,6,7,7,8,8,9,9,10,10,11,11,12,12,13,13,14,14,15,15,16,16,17,17,18,18,19,19,20,20,21,21,22,22,23,23,24,24,25,25,26,26,27,27,28,28,30,30],"right_children":[2,4,6,8,10,12,14,16,18,20,22,24,26,28,30,32,34,36,38,40,42,44,46,48,50,52,54,56,58,-1,60,-1,-1,-1,-1,-1,-1,-1,-1,-1,-1,-1,-1,-1,-1,-1,-1,-1,-1,-1,-1,-1,-1,-1,-1,-1,-1,-1,-1,-1,-1],"split_conditions":[2E1,3.9E-1,3.9E-1,5E-1,5.59E1,5E-1,6.56E1,3.8E-1,4.53E1,5E-1,5.6E-1,1.47E-1,2.93E-1,5.6E-1,3.8E-1,5.08E1,5.59E1,2.93E-1,2.93E-1,5.08E1,5.6E-1,2.93E-1,2.93E-1,2.5E-1,6.64E0,2.6E-1,4.53E1,2.93E-1,4.53E1,-2.816445E2,5.59E1,3.0861685E1,-6.006603E0,8.5758026E1,-1.0813916E1,8.090534E1,1.309926E2,1.6025548E2,2.20663E2,-4.5446194E1,-9.453933E1,8.3160355E1,3.898629E0,-9.29334E1,-1.6361303E1,-1.8058826E2,-8.665444E1,7.8659935E1,-3.1251026E1,-1.5292703E2,-1.4224122E0,2.396121E1,-1.3508171E1,2.3905256E1,8.611701E1,-6.2399403E1,8.6237305E-1,-1.5267332E2,-6.823736E1,-1.18063255E2,-1.9982675E2],"split_indices":[1,0,0,5,2,5,3,5,2,5,0,7,6,0,7,2,2,6,6,2,0,6,6,4,4,0,2,6,2,0,2,0,0,0,0,0,0,0,0,0,0,0,0,0,0,0,0,0,0,0,0,0,0,0,0,0,0,0,0,0,0],"split_type":[0,0,0,0,0,0,0,0,0,0,0,0,0,0,0,0,0,0,0,0,0,0,0,0,0,0,0,0,0,0,0,0,0,0,0,0,0,0,0,0,0,0,0,0,0,0,0,0,0,0,0,0,0,0,0,0,0,0,0,0,0],"sum_hessian":[6.21E2,3.19E2,3.02E2,1.65E2,1.54E2,1.6E2,1.42E2,2.7E1,1.38E2,1.18E2,3.6E1,4E1,1.2E2,6.6E1,7.6E1,1.4E1,1.3E1,3.3E1,1.05E2,1.5E1,1.03E2,1.5E1,2.1E1,3E0,3.7E1,8.3E1,3.7E1,3E1,3.6E1,1.3E1,6.3E1,6E0,8E0,1.1E1,2E0,2.3E1,1E1,7.3E1,3.2E1,9E0,6E0,5.5E1,4.8E1,1.2E1,3E0,1.7E1,4E0,1E0,2E0,3.5E1,2E0,3.8E1,4.5E1,8E0,2.9E1,2.1E1,9E0,1.8E1,1.8E1,2.8E1,3.5E1],"tree_param":{"num_deleted":"0","num_feature":"8","num_nodes":"61","size_leaf_vector":"1"}},{"base_weights":[-9.730413E-1,6.324085E2,-6.6988763E2,1.2881394E3,-7.393821E1,-1.3040501E2,-1.2725927E3,3.7598016E2,1.4626166E3,2.8179053E2,-1.2160404E3,-1.1980876E3,2.3244948E2,-7.512782E2,-1.7096768E3,5.1742957E2,-1.2228648E2,9.016388E2,1.6287546E3,-6.366324E2,4.2037686E2,-7.232192E2,-1.5191814E3,1.5487744E2,-1.3089764E3,3.367205E1,6.6573517E2,-1.9092796E2,-6.4744824E2,-2.554918E2,-1.4980665E3,1.8507484E1,7.78969E1,9.824576E0,-2.3014853E1,7.315192E1,1.1908417E2,1.4444652E2,1.9926537E2,-3.992151E1,-8.848525E1,7.499284E1,3.5167413E0,-8.435491E1,-1.5134204E1,-1.8663452E2,-1.13527214E2,7.472693E1,-2.9167627E1,-1.3805911E2,-1.327588E0,-2.7016966E1,1.3924103E1,8.8126724E1,3.772958E1,-9.45682E1,-3.090882E1,-1.0666402E2,-1.8039915E2],"categories":[],"categories_nodes":[],"categories_segments":[],"categories_sizes":[],"default_left":[0,0,0,0,0,0,0,0,0,0,0,0,0,0,0,0,0,0,0,0,0,0,0,0,0,0,0,0,0,0,0,0,0,0,0,0,0,0,0,0,0,0,0,0,0,0,0,0,0,0,0,0,0,0,0,0,0,0,0],"id":1,"left_children":[1,3,5,7,9,11,13,15,17,19,21,23,25,27,29,31,33,35,37,39,41,43,45,47,49,51,53,-1,55,-1,57,-1,-1,-1,-1,-1,-1,-1,-1,-1,-1,-1,-1,-1,-1,-1,-1,-1,-1,-1,-1,-1,-1,-1,-1,-1,-1,-1,-1],"loss_changes":[2.6395147E8,1.4831075E8,9.835416E7,2.586912E7,6.3315852E7,6.265206E7,3.1299296E7,2.036701E6,1.148624E7,1.5414045E7,4.428888E6,6.353908E6,1.0399E7,6.819596E6,9.944928E6,1.7681565E6,1.8912056E5,8.01646E5,4.230336E6,5.896615E5,1.3176048E7,9.733595E5,8.1334E5,1.2760998E6,3.507728E6,2.7320242E6,2.029884E6,0E0,6.065056E6,0E0,6.522768E6,0E0,0E0,0E0,0E0,0E0,0E0,0E0,0E0,0E0,0E0,0E0,0E0,0E0,0E0,0E0,0E0,0E0,0E0,0E0,0E0,0E0,0E0,0E0,0E0,0E0,0E0,0E0,0E0],"parents":[2147483647,0,0,1,1,2,2,3,3,4,4,5,5,6,6,7,7,8,8,9,9,10,10,11,11,12,12,13,13,14,14,15,15,16,16,17,17,18,18,19,19,20,20,21,21,22,22,23,23,24,24,25,25,26,26,28,28,30,30],"right_children":[2,4,6,8,10,12,14,16,18,20,22,24,26,28,30,32,34,36,38,40,42,44,46,48,50,52,54,-1,56,-1,58,-1,-1,-1,-1,-1,-1,-1,-1,-1,-1,-1,-1,-1,-1,-1,-1,-1,-1,-1,-1,-1,-1,-1,-1,-1,-1,-1,-1],"split_conditions":[2E1,3.9E-1,3.9E-1,5E-1,5.59E1,5E-1,6.56E1,5.59E1,4.53E1,5E-1,5.6E-1,1.47E-1,2.93E-1,5E-1,3.8E-1,3.8E-1,2.6E-1,2.93E-1,2.93E-1,5.6E-1,5.6E-1,2.93E-1,5.85E-1,2.5E-1,6.64E0,4.53E1,2.6E-1,-1.9092796E2,4.53E1,-2.554918E2,5.59E1,1.8507484E1,7.78969E1,9.824576E0,-2.3014853E1,7.315192E1,1.1908417E2,1.4444652E2,1.9926537E2,-3.992151E1,-8.848525E1,7.499284E1,3.5167413E0,-8.435491E1,-1.5134204E1,-1.8663452E2,-1.13527214E2,7.472693E1,-2.9167627E1,-1.3805911E2,-1.327588E0,-2.7016966E1,1.3924103E1,8.8126724E1,3.772958E1,-9.45682E1,-3.090882E1,-1.0666402E2,-1.8039915E2],"split_indices":[1,0,0,5,2,5,3,2,2,5,0,7,6,4,7,5,0,6,6,0,0,6,5,4,4,2,0,0,2,0,2,0,0,0,0,0,0,0,0,0,0,0,0,0,0,0,0,0,0,0,0,0,0,0,0,0,0,0,0],"split_type":[0,0,0,0,0,0,0,0,0,0,0,0,0,0,0,0,0,0,0,0,0,0,0,0,0,0,0,0,0,0,0,0,0,0,0,0,0,0,0,0,0,0,0,0,0,0,0,0,0,0,0,0,0,0,0,0,0,0,0],"sum_hessian":[6.21E2,3.19E2,3.02E2,1.65E2,1.54E2,1.6E2,1.42E2,2.7E1,1.38E2,1.18E2,3.6E1,4E1,1.2E2,6.6E1,7.6E1,2.1E1,6E0,3.3E1,1.05E2,1.5E1,1.03E2,1.5E1,2.1E1,3E0,3.7E1,8.3E1,3.7E1,4E0,6.2E1,1.3E1,6.3E1,1E1,1.1E1,2E0,4E0,2.3E1,1E1,7.3E1,3.2E1,9E0,6E0,5.5E1,4.8E1,1.2E1,3E0,9E0,1.2E1,1E0,2E0,3.5E1,2E0,2.1E1,6.2E1,2E1,1.7E1,3.2E1,3E1,2.8E1,3.5E1],"tree_param":{"num_deleted":"0","num_feature":"8","num_nodes":"59","size_leaf_vector":"1"}},{"base_weights":[-1.9535352E0,5.696979E2,-6.056713E2,1.1630555E3,-6.9444595E1,-1.17246994E2,-1.1513402E3,3.4135406E2,1.3202108E3,2.531923E2,-1.1052378E3,-1.0805674E3,2.1013635E2,-2.2319868E2,-9.677573E2,6.0269275E2,7.468102E1,8.17129E2,1.469122E3,-5.809946E2,3.790942E2,-6.5711523E2,-1.380907E3,-1.1656636E3,3.8587222E2,3.014885E1,6.024736E2,-6.89575E2,-1.6286036E3,-3.4061474E1,7.01456E1,1.9808178E1,-2.1173681E1,6.614153E1,1.08258354E2,1.3019708E2,1.7994267E2,-3.582054E1,-8.162657E1,6.762749E1,3.1722577E0,-7.65683E1,-1.3999133E1,-1.4956148E2,-6.9177765E1,-1.24125854E2,1.5522786E1,7.099058E1,-1.3109741E1,2.121458E1,-1.2480832E1,1.6746696E1,7.128931E1,-3.2078575E1,-9.978994E1,-1.2588788E2,-1.928391E2],"categories":[],"categories_nodes":[],"categories_segments":[],"categories_sizes":[],"default_left":[0,0,0,0,0,0,0,0,0,0,0,0,0,0,0,0,0,0,0,0,0,0,0,0,0,0,0,0,0,0,0,0,0,0,0,0,0,0,0,0,0,0,0,0,0,0,0,0,0,0,0,0,0,0,0,0,0],"id":2,"left_children":[1,3,5,7,9,11,13,15,17,19,21,23,25,-1,27,29,31,33,35,37,39,41,43,45,47,49,51,53,55,-1,-1,-1,-1,-1,-1,-1,-1,-1,-1,-1,-1,-1,-1,-1,-1,-1,-1,-1,-1,-1,-1,-1,-1,-1,-1,-1,-1],"loss_changes":[2.1500726E8,1.2143758E8,8.061996E7,2.0985728E7,5.207853E7,5.1002452E7,2.6209488E7,1.9063662E6,9.212624E6,1.2718313E7,3.663328E6,5.566124E6,8.526348E6,0E0,2.1672592E7,1.543224E6,5.721038E5,6.8935E5,3.509568E6,5.46263E5,1.0714688E7,7.910985E5,7.04428E5,4.086928E6,5.956133E5,2.395423E6,1.705876E6,9.799792E6,1.562592E6,0E0,0E0,0E0,0E0,0E0,0E0,0E0,0E0,0E0,0E0,0E0,0E0,0E0,0E0,0E0,0E0,0E0,0E0,0E0,0E0,0E0,0E0,0E0,0E0,0E0,0E0,0E0,0E0],"parents":[2147483647,0,0,1,1,2,2,3,3,4,4,5,5,6,6,7,7,8,8,9,9,10,10,11,11,12,12,14,14,15,15,16,16,17,17,18,18,19,19,20,20,21,21,22,22,23,23,24,24,25,25,26,26,27,27,28,28],"right_children":[2,4,6,8,10,12,14,16,18,20,22,24,26,-1,28,30,32,34,36,38,40,42,44,46,48,50,52,54,56,-1,-1,-1,-1,-1,-1,-1,-1,-1,-1,-1,-1,-1,-1,-1,-1,-1,-1,-1,-1,-1,-1,-1,-1,-1,-1,-1,-1],"split_conditions":[2E1,3.9E-1,3.9E-1,5E-1,5.59E1,5E-1,5E-1,2.6E-1,4.53E1,5E-1,5.6E-1,2.93E-1,2.93E-1,-2.2319868E2,5.59E1,1E-1,5.59E1,2.93E-1,2.93E-1,5.08E1,5.6E-1,2.93E-1,2.93E-1,1.843E1,2.1E-2,2.6E-1,4.53E1,5.6E-1,5.6E-1,-3.4061474E1,7.01456E1,1.9808178E1,-2.1173681E1,6.614153E1,1.08258354E2,1.3019708E2,1.7994267E2,-3.582054E1,-8.162657E1,6.762749E1,3.1722577E0,-7.65683E1,-1.3999133E1,-1.4956148E2,-6.9177765E1,-1.24125854E2,1.5522786E1,7.099058E1,-1.3109741E1,2.121458E1,-1.2480832E1,1.6746696E1,7.128931E1,-3.2078575E1,-9.978994E1,-1.2588788E2,-1.928391E2],"split_indices":[1,0,0,5,2,5,5,0,2,5,0,6,6,0,2,0,2,6,6,2,0,6,6,4,5,0,2,0,0,0,0,0,0,0,0,0,0,0,0,0,0,0,0,0,0,0,0,0,0,0,0,0,0,0,0,0,0],"split_type":[0,0,0,0,0,0,0,0,0,0,0,0,0,0,0,0,0,0,0,0,0,0,0,0,0,0,0,0,0,0,0,0,0,0,0,0,0,0,0,0,0,0,0,0,0,0,0,0,0,0,0,0,0,0,0,0,0],"sum_hessian":[6.21E2,3.19E2,3.02E2,1.65E2,1.54E2,1.6E2,1.42E2,2.7E1,1.38E2,1.18E2,3.6E1,4E1,1.2E2,1.9E1,1.23E2,1.3E1,1.4E1,3.3E1,1.05E2,1.5E1,1.03E2,1.5E1,2.1E1,3.8E1,2E0,8.3E1,3.7E1,8.8E1,3.5E1,1E0,1.2E1,1E1,4E0,2.3E1,1E1,7.3E1,3.2E1,9E0,6E0,5.5E1,4.8E1,1.2E1,3E0,1.7E1,4E0,3.6E1,2E0,1E0,1E0,3.8E1,4.5E1,8E0,2.9E1,4.1E1,4.7E1,1.8E1,1.7E1],"tree_param":{"num_deleted":"0","num_feature":"8","num_nodes":"57","size_leaf_vector":"1"}},{"base_weights":[-2.5048676E0,5.1323834E2,-5.4717584E2,1.0498779E3,-6.479664E1,-1.0523612E2,-1.040918E3,3.084587E2,1.1916755E3,2.2748103E2,-1.0030736E3,-1.0692198E3,1.6125731E2,-6.0451245E2,-1.4071292E3,5.8693977E1,5.54031E2,7.405455E2,1.3251354E3,4.011394E1,7.145555E2,-5.970642E2,-1.2527589E3,1.601825E2,-1.1894819E3,-2.3662436E0,5.4454315E2,-8.200125E2,-1.5659875E2,-1.0315422E3,-1.7466357E3,2.2774889E1,-7.931473E0,8.6401665E1,2.1353973E1,5.980296E1,9.8416695E1,1.17353294E2,1.6249368E2,-5.302358E1,1.6630117E1,1.0626294E2,3.244489E1,-6.950045E1,-1.2949206E1,-1.5718074E2,-9.10971E1,6.744104E1,-2.3603027E1,-1.2711617E2,2.3810222E0,1.944425E1,-1.6370209E1,7.372342E1,2.894845E1,-4.594096E1,-1.1163979E2,-4.420732E1,1.4192558E1,-1.3803337E2,-6.9927925E1,-1.948387E2,-1.1303298E2],"categories":[],"categories_nodes":[],"categories_segments":[],"categories_sizes":[],"default_left":[0,0,0,0,0,0,0,0,0,0,0,0,0,0,0,0,0,0,0,0,0,0,0,0,0,0,0,0,0,0,0,0,0,0,0,0,0,0,0,0,0,0,0,0,0,0,0,0,0,0,0,0,0,0,0,0,0,0,0,0,0,0,0],"id":3,"left_children":[1,3,5,7,9,11,13,15,17,19,21,23,25,27,29,31,33,35,37,39,41,43,45,47,49,51,53,55,57,59,61,-1,-1,-1,-1,-1,-1,-1,-1,-1,-1,-1,-1,-1,-1,-1,-1,-1,-1,-1,-1,-1,-1,-1,-1,-1,-1,-1,-1,-1,-1,-1,-1],"loss_changes":[1.7500707E8,9.933089E7,6.600636E7,1.7084256E7,4.2734976E7,4.1532564E7,2.2003152E7,1.6848698E6,7.387536E6,1.0831481E7,3.002888E6,5.365304E6,7.966041E6,6.33879E6,8.016864E6,3.680296E5,1.293161E6,5.91916E5,2.910848E6,6.3496435E6,4.136166E6,6.42709E5,9.6716E5,9.741559E5,3.201512E6,2.889538E6,1.654188E6,4.296598E6,2.0228262E6,3.554492E6,2.64696E6,0E0,0E0,0E0,0E0,0E0,0E0,0E0,0E0,0E0,0E0,0E0,0E0,0E0,0E0,0E0,0E0,0E0,0E0,0E0,0E0,0E0,0E0,0E0,0E0,0E0,0E0,0E0,0E0,0E0,0E0,0E0,0E0],"parents":[2147483647,0,0,1,1,2,2,3,3,4,4,5,5,6,6,7,7,8,8,9,9,10,10,11,11,12,12,13,13,14,14,15,15,16,16,17,17,18,18,19,19,20,20,21,21,22,22,23,23,24,24,25,25,26,26,27,27,28,28,29,29,30,30],"right_children":[2,4,6,8,10,12,14,16,18,20,22,24,26,28,30,32,34,36,38,40,42,44,46,48,50,52,54,56,58,60,62,-1,-1,-1,-1,-1,-1,-1,-1,-1,-1,-1,-1,-1,-1,-1,-1,-1,-1,-1,-1,-1,-1,-1,-1,-1,-1,-1,-1,-1,-1,-1,-1],"split_conditions":[2E1,3.9E-1,3.9E-1,5E-1,5.59E1,3.8E-1,6.56E1,3.8E-1,4.53E1,2.93E-1,5.6E-1,1.47E-1,2.93E-1,2.93E-1,5.6E-1,5.08E1,2.6E-1,2.93E-1,2.93E-1,5E-1,5.6E-1,2.93E-1,5.85E-1,2.5E-1,6.64E0,2.6E-1,2.6E-1,5.6E-1,4.53E1,5.85E-1,2.93E-1,2.2774889E1,-7.931473E0,8.6401665E1,2.1353973E1,5.980296E1,9.8416695E1,1.17353294E2,1.6249368E2,-5.302358E1,1.6630117E1,1.0626294E2,3.244489E1,-6.950045E1,-1.2949206E1,-1.5718074E2,-9.10971E1,6.744104E1,-2.3603027E1,-1.2711617E2,2.3810222E0,1.944425E1,-1.6370209E1,7.372342E1,2.894845E1,-4.594096E1,-1.1163979E2,-4.420732E1,1.4192558E1,-1.3803337E2,-6.9927925E1,-1.948387E2,-1.1303298E2],"split_indices":[1,0,0,5,2,5,3,5,2,6,0,7,6,6,0,2,0,6,6,5,0,6,5,4,4,0,0,0,2,5,6,0,0,0,0,0,0,0,0,0,0,0,0,0,0,0,0,0,0,0,0,0,0,0,0,0,0,0,0,0,0,0,0],"split_type":[0,0,0,0,0,0,0,0,0,0,0,0,0,0,0,0,0,0,0,0,0,0,0,0,0,0,0,0,0,0,0,0,0,0,0,0,0,0,0,0,0,0,0,0,0,0,0,0,0,0,0,0,0,0,0,0,0,0,0,0,0,0,0],"sum_hessian":[6.21E2,3.19E2,3.02E2,1.65E2,1.54E2,1.6E2,1.42E2,2.7E1,1.38E2,1.18E2,3.6E1,3.4E1,1.26E2,6.6E1,7.6E1,1.4E1,1.3E1,3.3E1,1.05E2,8.6E1,3.2E1,1.5E1,2.1E1,3E0,3.1E1,8.9E1,3.7E1,4.4E1,2.2E1,3.8E1,3.8E1,6E0,8E0,6E0,7E0,2.3E1,1E1,7.3E1,3.2E1,1.5E1,7.1E1,1.6E1,1.6E1,1.2E1,3E0,9E0,1.2E1,1E0,2E0,2.9E1,2E0,4E1,4.9E1,2E1,1.7E1,2.1E1,2.3E1,1.1E1,1.1E1,1.7E1,2.1E1,2.7E1,1.1E1],"tree_param":{"num_deleted":"0","num_feature":"8","num_nodes":"63","size_leaf_vector":"1"}},{"base_weights":[-2.811169E0,4.6295282E2,-4.9469785E2,9.4826764E2,-5.9790478E1,-9.455821E1,-9.417453E2,2.8199136E2,1.0756594E3,2.0559288E2,-9.117048E2,-8.837973E2,1.736514E2,-1.9368243E2,-7.9211694E2,5.3814224E1,5.0632465E2,6.7114465E2,1.1952617E3,3.56844E1,6.4730334E2,-1.2373846E3,-6.334056E2,-9.5884875E2,3.8647037E2,2.7211565E1,4.927907E2,-5.6349567E2,-1.3480175E3,1.9316248E1,-9.226081E0,7.899579E1,1.9485498E1,5.407187E1,8.9469734E1,1.0577653E2,1.4673672E2,2.609914E1,-2.483086E1,9.626174E1,2.9391256E1,-1.4487592E2,-7.586518E1,-3.185467E1,-8.2688126E1,-1.022999E2,1.519533E1,6.406899E1,-6.098438E0,-2.4527678E1,1.2193429E1,6.6702126E1,2.621445E1,-2.906017E1,-8.019091E1,-1.048278E2,-1.5895193E2],"categories":[],"categories_nodes":[],"categories_segments":[],"categories_sizes":[],"default_left":[0,0,0,0,0,0,0,0,0,0,0,0,0,0,0,0,0,0,0,0,0,0,0,0,0,0,0,0,0,0,0,0,0,0,0,0,0,0,0,0,0,0,0,0,0,0,0,0,0,0,0,0,0,0,0,0,0],"id":4,"left_children":[1,3,5,7,9,11,13,15,17,19,21,23,25,-1,27,29,31,33,35,37,39,41,43,45,47,49,51,53,55,-1,-1,-1,-1,-1,-1,-1,-1,-1,-1,-1,-1,-1,-1,-1,-1,-1,-1,-1,-1,-1,-1,-1,-1,-1,-1,-1,-1],"loss_changes":[1.4273115E8,8.123912E7,5.4112016E7,1.3786432E7,3.5230444E7,3.423419E7,1.975736E7,1.4060085E6,5.922768E6,8.907894E6,2.569782E6,4.279322E6,5.6414895E6,0E0,1.5253824E7,3.231508E5,1.0828768E6,5.07561E5,2.413696E6,5.631554E6,3.394234E6,5.19968E5,1.076786E6,2.934516E6,3.8032734E5,2.198018E6,1.352197E6,5.687568E6,9.397E5,0E0,0E0,0E0,0E0,0E0,0E0,0E0,0E0,0E0,0E0,0E0,0E0,0E0,0E0,0E0,0E0,0E0,0E0,0E0,0E0,0E0,0E0,0E0,0E0,0E0,0E0,0E0,0E0],"parents":[2147483647,0,0,1,1,2,2,3,3,4,4,5,5,6,6,7,7,8,8,9,9,10,10,11,11,12,12,14,14,15,15,16,16,17,17,18,18,19,19,20,20,21,21,22,22,23,23,24,24,25,25,26,26,27,27,28,28],"right_children":[2,4,6,8,10,12,14,16,18,20,22,24,26,-1,28,30,32,34,36,38,40,42,44,46,48,50,52,54,56,-1,-1,-1,-1,-1,-1,-1,-1,-1,-1,-1,-1,-1,-1,-1,-1,-1,-1,-1,-1,-1,-1,-1,-1,-1,-1,-1,-1],"split_conditions":[2E1,3.9E-1,3.9E-1,5E-1,5.59E1,5E-1,3.8E-1,3.8E-1,4.53E1,2.93E-1,5.85E-1,2.93E-1,2.93E-1,-1.9368243E2,5.59E1,2.6E-1,2.6E-1,2.93E-1,2.93E-1,5.6E-1,5.6E-1,4.09E-1,5.6E-1,1.843E1,2.1E-2,4.53E1,2.6E-1,5.6E-1,5.6E-1,1.9316248E1,-9.226081E0,7.899579E1,1.9485498E1,5.407187E1,8.9469734E1,1.0577653E2,1.4673672E2,2.609914E1,-2.483086E1,9.626174E1,2.9391256E1,-1.4487592E2,-7.586518E1,-3.185467E1,-8.2688126E1,-1.022999E2,1.519533E1,6.406899E1,-6.098438E0,-2.4527678E1,1.2193429E1,6.6702126E1,2.621445E1,-2.906017E1,-8.019091E1,-1.048278E2,-1.5895193E2],"split_indices":[1,0,0,5,2,5,7,5,2,6,5,6,6,0,2,0,0,6,6,0,0,7,0,4,5,2,0,0,0,0,0,0,0,0,0,0,0,0,0,0,0,0,0,0,0,0,0,0,0,0,0,0,0,0,0,0,0],"split_type":[0,0,0,0,0,0,0,0,0,0,0,0,0,0,0,0,0,0,0,0,0,0,0,0,0,0,0,0,0,0,0,0,0,0,0,0,0,0,0,0,0,0,0,0,0,0,0,0,0,0,0,0,0,0,0,0,0],"sum_hessian":[6.21E2,3.19E2,3.02E2,1.65E2,1.54E2,1.6E2,1.42E2,2.7E1,1.38E2,1.18E2,3.6E1,4E1,1.2E2,1.7E1,1.25E2,1.4E1,1.3E1,3.3E1,1.05E2,8.6E1,3.2E1,1.5E1,2.1E1,3.8E1,2E0,8.3E1,3.7E1,9E1,3.5E1,7E0,7E0,6E0,7E0,2.3E1,1E1,7.3E1,3.2E1,4.8E1,3.8E1,1.6E1,1.6E1,9E0,6E0,9E0,1.2E1,3.6E1,2E0,1E0,1E0,2.1E1,6.2E1,2E1,1.7E1,4.3E1,4.7E1,1.8E1,1.7E1],"tree_param":{"num_deleted":"0","num_feature":"8","num_nodes":"57","size_leaf_vector":"1"}},{"base_weights":[-2.8821025E0,4.175834E2,-4.469286E2,8.5648083E2,-5.515565E1,-8.47828E1,-8.5153375E2,2.5766983E2,9.7094293E2,1.8610025E2,-8.2959607E2,-8.794482E2,1.3488705E2,-1.709962E2,-7.062104E2,3.6927634E2,-1.2990353E2,6.082521E2,1.0781179E3,-4.858954E2,2.8769476E2,-4.832037E2,-1.043809E3,-9.6612506E2,3.6714697E2,2.0477269E0,4.4595685E2,-4.9023087E2,-1.2205428E3,1.2271041E1,5.645221E1,3.734245E0,-2.0427042E1,4.8889988E1,8.133613E1,1.2405039E2,8.856304E1,-2.813632E1,-7.0867065E1,5.2223324E1,1.3779496E0,-5.6859333E1,-8.48866E0,-1.3206596E2,-7.505538E1,-1.0849007E2,-8.400137E0,6.086555E1,-5.793506E0,1.7722225E1,-1.4163632E1,7.5126624E0,5.423407E1,-2.120925E1,-7.233888E1,-9.489675E1,-1.4393979E2],"categories":[],"categories_nodes":[],"categories_segments":[],"categories_sizes":[],"default_left":[0,0,0,0,0,0,0,0,0,0,0,0,0,0,0,0,0,0,0,0,0,0,0,0,0,0,0,0,0,0,0,0,0,0,0,0,0,0,0,0,0,0,0,0,0,0,0,0,0,0,0,0,0,0,0,0,0],"id":5,"left_children":[1,3,5,7,9,11,13,15,17,19,21,23,25,-1,27,29,31,33,35,37,39,41,43,45,47,49,51,53,55,-1,-1,-1,-1,-1,-1,-1,-1,-1,-1,-1,-1,-1,-1,-1,-1,-1,-1,-1,-1,-1,-1,-1,-1,-1,-1,-1,-1],"loss_changes":[1.1631792E8,6.6442096E7,4.4325196E7,1.1127648E7,2.9114328E7,2.8223434E7,1.6631624E7,1.2591301E6,4.747368E6,8.264049E6,2.241092E6,4.136494E6,5.247019E6,0E0,1.3176224E7,9.8982825E5,9.469088E4,4.34676E5,2.214632E6,5.296415E5,6.674145E6,4.9592825E5,7.94906E5,3.366434E6,3.4324528E5,2.2903815E6,1.317453E6,5.61824E6,7.7374E5,0E0,0E0,0E0,0E0,0E0,0E0,0E0,0E0,0E0,0E0,0E0,0E0,0E0,0E0,0E0,0E0,0E0,0E0,0E0,0E0,0E0,0E0,0E0,0E0,0E0,0E0,0E0,0E0],"parents":[2147483647,0,0,1,1,2,2,3,3,4,4,5,5,6,6,7,7,8,8,9,9,10,10,11,11,12,12,14,14,15,15,16,16,17,17,18,18,19,19,20,20,21,21,22,22,23,23,24,24,25,25,26,26,27,27,28,28],"right_children":[2,4,6,8,10,12,14,16,18,20,22,24,26,-1,28,30,32,34,36,38,40,42,44,46,48,50,52,54,56,-1,-1,-1,-1,-1,-1,-1,-1,-1,-1,-1,-1,-1,-1,-1,-1,-1,-1,-1,-1,-1,-1,-1,-1,-1,-1,-1,-1],"split_conditions":[2E1,3.9E-1,3.9E-1,5E-1,5.59E1,3.8E-1,5E-1,5.59E1,4.53E1,5E-1,5.6E-1,2.93E-1,2.93E-1,-1.709962E2,5.59E1,3.8E-1,2.6E-1,2.93E-1,2.6E-1,5.08E1,5.6E-1,2.93E-1,5.85E-1,6.64E0,2.1E-2,2.6E-1,4.53E1,5.6E-1,5.6E-1,1.2271041E1,5.645221E1,3.734245E0,-2.0427042E1,4.8889988E1,8.133613E1,1.2405039E2,8.856304E1,-2.813632E1,-7.0867065E1,5.2223324E1,1.3779496E0,-5.6859333E1,-8.48866E0,-1.3206596E2,-7.505538E1,-1.0849007E2,-8.400137E0,6.086555E1,-5.793506E0,1.7722225E1,-1.4163632E1,7.5126624E0,5.423407E1,-2.120925E1,-7.233888E1,-9.489675E1,-1.4393979E2],"split_indices":[1,0,0,5,2,5,5,2,2,5,0,6,6,0,2,5,0,6,0,2,0,6,5,4,5,0,2,0,0,0,0,0,0,0,0,0,0,0,0,0,0,0,0,0,0,0,0,0,0,0,0,0,0,0,0,0,0],"split_type":[0,0,0,0,0,0,0,0,0,0,0,0,0,0,0,0,0,0,0,0,0,0,0,0,0,0,0,0,0,0,0,0,0,0,0,0,0,0,0,0,0,0,0,0,0,0,0,0,0,0,0,0,0,0,0,0,0],"sum_hessian":[6.21E2,3.19E2,3.02E2,1.65E2,1.54E2,1.6E2,1.42E2,2.7E1,1.38E2,1.18E2,3.6E1,3.4E1,1.26E2,1.9E1,1.23E2,2.1E1,6E0,3.3E1,1.05E2,1.5E1,1.03E2,1.5E1,2.1E1,3.2E1,2E0,8.9E1,3.7E1,8.8E1,3.5E1,1E1,1.1E1,2E0,4E0,2.3E1,1E1,5.4E1,5.1E1,9E0,6E0,5.5E1,4.8E1,1.2E1,3E0,9E0,1.2E1,2.8E1,4E0,1E0,1E0,4E1,4.9E1,8E0,2.9E1,4.1E1,4.7E1,1.8E1,1.7E1],"tree_param":{"num_deleted":"0","num_feature":"8","num_nodes":"57","size_leaf_vector":"1"}},{"base_weights":[-3.2737277E0,3.7606573E2,-4.0388547E2,7.7321155E2,-5.169081E1,-7.6282814E1,-7.6990045E2,2.3376112E2,8.763151E2,3.3349475E2,-4.5646918E2,-7.932695E2,1.2191259E2,-5.6151465E2,-1.2576493E3,4.3273428E2,3.2468784E1,5.51257E2,9.7231195E2,-9.084564E1,7.195848E2,-6.4342285E1,-8.077748E2,-8.7305457E2,3.4878955E2,1.8824869E0,4.029862E2,-7.4777997E2,-1.1078519E2,-1.4435544E3,-7.827277E2,-3.3541187E1,5.1762337E1,1.2969771E1,-1.8792862E1,4.4204685E1,7.394195E1,8.473494E1,1.223067E2,1.9059431E1,-4.6627346E1,-1.713488E1,8.446123E1,2.110371E1,-4.3896755E1,-9.5438866E1,-3.3448475E1,-9.801515E1,-7.728145E0,5.7822266E1,-5.5038333E0,-4.6194996E1,4.656655E0,5.585185E1,1.9914373E1,-1.0294826E2,-4.9668076E1,1.6297443E1,-2.9226358E1,-1.102641E2,-1.6516316E2,-5.4424477E1,-9.4346146E1],"categories":[],"categories_nodes":[],"categories_segments":[],"categories_sizes":[],"default_left":[0,0,0,0,0,0,0,0,0,0,0,0,0,0,0,0,0,0,0,0,0,0,0,0,0,0,0,0,0,0,0,0,0,0,0,0,0,0,0,0,0,0,0,0,0,0,0,0,0,0,0,0,0,0,0,0,0,0,0,0,0,0,0],"id":6,"left_children":[1,3,5,7,9,11,13,15,17,19,21,23,25,27,29,31,33,35,37,39,41,43,45,47,49,51,53,55,57,59,61,-1,-1,-1,-1,-1,-1,-1,-1,-1,-1,-1,-1,-1,-1,-1,-1,-1,-1,-1,-1,-1,-1,-1,-1,-1,-1,-1,-1,-1,-1,-1,-1],"loss_changes":[9.4675896E7,5.440212E7,3.6273244E7,9.027952E6,2.4319022E7,2.2975366E7,1.3828312E7,1.1073991E6,3.801432E6,1.3172058E7,1.041751E7,3.493688E6,4.2838775E6,8.480598E6,2.578292E6,1.0865182E6,3.4580894E5,3.71816E5,2.285152E6,4.209624E6,4.823152E6,3.9097085E6,2.456408E6,2.736672E6,3.0977884E5,1.8868438E6,1.0935305E6,4.581612E6,1.5877568E6,2.35992E5,2.3177E4,0E0,0E0,0E0,0E0,0E0,0E0,0E0,0E0,0E0,0E0,0E0,0E0,0E0,0E0,0E0,0E0,0E0,0E0,0E0,0E0,0E0,0E0,0E0,0E0,0E0,0E0,0E0,0E0,0E0,0E0,0E0,0E0],"parents":[2147483647,0,0,1,1,2,2,3,3,4,4,5,5,6,6,7,7,8,8,9,9,10,10,11,11,12,12,13,13,14,14,15,15,16,16,17,17,18,18,19,19,20,20,21,21,22,22,23,23,24,24,25,25,26,26,27,27,28,28,29,29,30,30],"right_children":[2,4,6,8,10,12,14,16,18,20,22,24,26,28,30,32,34,36,38,40,42,44,46,48,50,52,54,56,58,60,62,-1,-1,-1,-1,-1,-1,-1,-1,-1,-1,-1,-1,-1,-1,-1,-1,-1,-1,-1,-1,-1,-1,-1,-1,-1,-1,-1,-1,-1,-1,-1,-1],"split_conditions":[2E1,3.9E-1,3.9E-1,5E-1,5.08E1,3.8E-1,5.59E1,2.6E-1,4.53E1,4.53E1,5.6E-1,2.93E-1,2.93E-1,2.93E-1,2.93E-1,1E-1,5.59E1,2.93E-1,2.93E-1,5.6E-1,5E-1,5.59E1,2.93E-1,6.64E0,2.1E-2,5E-1,2.6E-1,5.85E-1,5.6E-1,5.6E-1,5.6E-1,-3.3541187E1,5.1762337E1,1.2969771E1,-1.8792862E1,4.4204685E1,7.394195E1,8.473494E1,1.223067E2,1.9059431E1,-4.6627346E1,-1.713488E1,8.446123E1,2.110371E1,-4.3896755E1,-9.5438866E1,-3.3448475E1,-9.801515E1,-7.728145E0,5.7822266E1,-5.5038333E0,-4.6194996E1,4.656655E0,5.585185E1,1.9914373E1,-1.0294826E2,-4.9668076E1,1.6297443E1,-2.9226358E1,-1.102641E2,-1.6516316E2,-5.4424477E1,-9.4346146E1],"split_indices":[1,0,0,5,2,5,2,0,2,2,0,6,6,6,6,0,2,6,6,0,5,2,6,4,5,4,0,5,0,0,0,0,0,0,0,0,0,0,0,0,0,0,0,0,0,0,0,0,0,0,0,0,0,0,0,0,0,0,0,0,0,0,0],"split_type":[0,0,0,0,0,0,0,0,0,0,0,0,0,0,0,0,0,0,0,0,0,0,0,0,0,0,0,0,0,0,0,0,0,0,0,0,0,0,0,0,0,0,0,0,0,0,0,0,0,0,0,0,0,0,0,0,0,0,0,0,0,0,0],"sum_hessian":[6.21E2,3.19E2,3.02E2,1.65E2,1.54E2,1.6E2,1.42E2,2.7E1,1.38E2,7.9E1,7.5E1,3.4E1,1.26E2,1.01E2,4.1E1,1.3E1,1.4E1,3.3E1,1.05E2,3.8E1,4.1E1,3.6E1,3.9E1,3.2E1,2E0,8.9E1,3.7E1,7.1E1,3E1,2.8E1,1.3E1,1E0,1.2E1,1E1,4E0,2.3E1,1E1,7.3E1,3.2E1,2.2E1,1.6E1,5E0,3.6E1,2.1E1,1.5E1,2.9E1,1E1,2.8E1,4E0,1E0,1E0,7E0,8.2E1,2E1,1.7E1,3.2E1,3.9E1,1.2E1,1.8E1,1.3E1,1.5E1,7E0,6E0],"tree_param":{"num_deleted":"0","num_feature":"8","num_nodes":"63","size_leaf_vector":"1"}},{"base_weights":[-3.562564E0,3.391644E2,-3.6550668E2,6.9792413E2,-4.7243816E1,-6.8773865E1,-6.970345E2,2.1082788E2,7.910232E2,1.526094E2,-6.8873816E2,-7.15469E2,1.0999073E2,-1.4365404E2,-5.721381E2,2.2864128E1,3.9715848E2,4.996063E2,8.7703406E2,4.1797295E0,5.392995E2,-1.2741632E2,-5.574479E2,-7.889535E2,3.313501E2,1.2326118E0,3.6468124E2,-3.9480286E2,-9.946576E2,-3.1864136E1,7.001747E0,6.294922E1,1.4422168E1,3.996841E1,6.721996E1,9.8170525E1,6.3665222E1,-1.4846831E1,3.4889645E1,7.812444E1,2.656311E1,-2.7883102E1,-7.3340515E1,-1.4001561E2,-6.2980457E1,5.4931152E1,-5.2286377E0,-2.4657253E1,8.503093E0,3.8767686E0,4.5029926E1,-1.5160123E1,-5.9937923E1,-7.751769E1,-1.1710729E2],"categories":[],"categories_nodes":[],"categories_segments":[],"categories_sizes":[],"default_left":[0,0,0,0,0,0,0,0,0,0,0,0,0,0,0,0,0,0,0,0,0,0,0,0,0,0,0,0,0,0,0,0,0,0,0,0,0,0,0,0,0,0,0,0,0,0,0,0,0,0,0,0,0,0,0],"id":7,"left_children":[1,3,5,7,9,11,13,15,17,19,21,23,25,-1,27,29,31,33,35,37,39,-1,41,43,45,47,49,51,53,-1,-1,-1,-1,-1,-1,-1,-1,-1,-1,-1,-1,-1,-1,-1,-1,-1,-1,-1,-1,-1,-1,-1,-1,-1,-1],"loss_changes":[7.728183E7,4.439384E7,2.975974E7,7.361032E6,1.9976838E7,1.8691292E7,1.2385816E7,9.715745E5,3.045856E6,6.827904E6,2.133564E6,2.953792E6,3.517407E6,0E0,8.898328E6,2.6385734E5,7.31934E5,3.17693E5,2.042072E6,4.629769E6,1.977496E6,0E0,1.364293E6,2.328158E6,2.795754E5,1.889875E6,1.0428975E6,4.337179E6,4.86124E5,0E0,0E0,0E0,0E0,0E0,0E0,0E0,0E0,0E0,0E0,0E0,0E0,0E0,0E0,0E0,0E0,0E0,0E0,0E0,0E0,0E0,0E0,0E0,0E0,0E0,0E0],"parents":[2147483647,0,0,1,1,2,2,3,3,4,4,5,5,6,6,7,7,8,8,9,9,10,10,11,11,12,12,14,14,15,15,16,16,17,17,18,18,19,19,20,20,22,22,23,23,24,24,25,25,26,26,27,27,28,28],"right_children":[2,4,6,8,10,12,14,16,18,20,22,24,26,-1,28,30,32,34,36,38,40,-1,42,44,46,48,50,52,54,-1,-1,-1,-1,-1,-1,-1,-1,-1,-1,-1,-1,-1,-1,-1,-1,-1,-1,-1,-1,-1,-1,-1,-1,-1,-1],"split_conditions":[2E1,3.9E-1,3.9E-1,5E-1,5.59E1,3.8E-1,5E-1,3.8E-1,4.53E1,2.93E-1,5E-1,2.93E-1,2.93E-1,-1.4365404E2,5.59E1,1E-1,2.6E-1,2.93E-1,5.59E1,7.5E-1,5.6E-1,-1.2741632E2,5.6E-1,2.5E-1,2.1E-2,4.53E1,4.53E1,5.6E-1,5.6E-1,-3.1864136E1,7.001747E0,6.294922E1,1.4422168E1,3.996841E1,6.721996E1,9.8170525E1,6.3665222E1,-1.4846831E1,3.4889645E1,7.812444E1,2.656311E1,-2.7883102E1,-7.3340515E1,-1.4001561E2,-6.2980457E1,5.4931152E1,-5.2286377E0,-2.4657253E1,8.503093E0,3.8767686E0,4.5029926E1,-1.5160123E1,-5.9937923E1,-7.751769E1,-1.1710729E2],"split_indices":[1,0,0,5,2,5,5,5,2,6,5,6,6,0,2,0,0,6,2,5,0,0,0,4,5,2,2,0,0,0,0,0,0,0,0,0,0,0,0,0,0,0,0,0,0,0,0,0,0,0,0,0,0,0,0],"split_type":[0,0,0,0,0,0,0,0,0,0,0,0,0,0,0,0,0,0,0,0,0,0,0,0,0,0,0,0,0,0,0,0,0,0,0,0,0,0,0,0,0,0,0,0,0,0,0,0,0,0,0,0,0,0,0],"sum_hessian":[6.21E2,3.19E2,3.02E2,1.65E2,1.54E2,1.6E2,1.42E2,2.7E1,1.38E2,1.18E2,3.6E1,3.4E1,1.26E2,1.9E1,1.23E2,1.4E1,1.3E1,3.3E1,1.05E2,8.6E1,3.2E1,5E0,3.1E1,3.2E1,2E0,8.9E1,3.7E1,8.8E1,3.5E1,1E0,1.3E1,6E0,7E0,2.3E1,1E1,7.1E1,3.4E1,6E1,2.6E1,1.6E1,1.6E1,1.3E1,1.8E1,5E0,2.7E1,1E0,1E0,2.2E1,6.7E1,8E0,2.9E1,4.1E1,4.7E1,1.8E1,1.7E1],"tree_param":{"num_deleted":"0","num_feature":"8","num_nodes":"55","size_leaf_vector":"1"}},{"base_weights":[-3.7147844E0,3.0592807E2,-3.3071808E2,6.300687E2,-4.3189873E1,-6.26451E1,-6.302218E2,1.9162027E2,7.1385645E2,2.8553113E2,-3.8864368E2,-5.9196625E2,1.1722939E2,-3.3233557E2,-8.812368E2,2.857117E2,-1.3146994E2,6.067324E2,9.389069E2,-9.6707924E1,6.33669E2,-5.1353752E1,-6.909208E2,-1.00094617E3,-4.0864212E2,-1.3775458E2,1.991021E2,-5.017577E2,1.359184E1,-6.158635E2,-1.1240143E3,2.8224502E0,4.3083122E1,-4.3232423E-1,-1.8146397E1,7.358889E1,4.4753963E1,6.1109077E1,1.0197273E2,1.5554122E1,-4.3229748E1,-1.4469759E1,7.427644E1,1.7489187E1,-3.5923187E1,-9.470744E1,-4.6041267E1,-1.4884727E2,-2.071465E0,-5.0594954E0,-7.633163E1,-2.0229687E1,3.5321507E0,3.421039E1,-9.332412E0,-2.6618439E1,-6.967933E1,-2.602307E1,2.8628172E1,-8.42293E1,-4.0260925E1,-1.2789468E2,-6.688373E1],"categories":[],"categories_nodes":[],"categories_segments":[],"categories_sizes":[],"default_left":[0,0,0,0,0,0,0,0,0,0,0,0,0,0,0,0,0,0,0,0,0,0,0,0,0,0,0,0,0,0,0,0,0,0,0,0,0,0,0,0,0,0,0,0,0,0,0,0,0,0,0,0,0,0,0,0,0,0,0,0,0,0,0],"id":8,"left_children":[1,3,5,7,9,11,13,15,17,19,21,23,25,27,29,31,33,35,37,39,41,43,45,47,49,51,53,55,57,59,61,-1,-1,-1,-1,-1,-1,-1,-1,-1,-1,-1,-1,-1,-1,-1,-1,-1,-1,-1,-1,-1,-1,-1,-1,-1,-1,-1,-1,-1,-1,-1,-1],"loss_changes":[6.3081304E7,3.623948E7,2.428804E7,5.961484E6,1.7712446E7,1.5398427E7,1.0399804E7,8.8876306E5,2.781392E6,1.070703E7,7.713099E6,2.664983E6,2.553451E6,3.9335385E6,4.268616E6,8.099009E5,4.3711508E4,1.665056E6,5.16108E5,3.3686742E6,3.673958E6,2.6401015E6,1.925776E6,5.703833E6,3.771082E6,3.422672E5,3.8791338E6,1.882058E6,1.7918775E6,1.544081E6,1.89494E6,0E0,0E0,0E0,0E0,0E0,0E0,0E0,0E0,0E0,0E0,0E0,0E0,0E0,0E0,0E0,0E0,0E0,0E0,0E0,0E0,0E0,0E0,0E0,0E0,0E0,0E0,0E0,0E0,0E0,0E0,0E0,0E0],"parents":[2147483647,0,0,1,1,2,2,3,3,4,4,5,5,6,6,7,7,8,8,9,9,10,10,11,11,12,12,13,13,14,14,15,15,16,16,17,17,18,18,19,19,20,20,21,21,22,22,23,23,24,24,25,25,26,26,27,27,28,28,29,29,30,30],"right_children":[2,4,6,8,10,12,14,16,18,20,22,24,26,28,30,32,34,36,38,40,42,44,46,48,50,52,54,56,58,60,62,-1,-1,-1,-1,-1,-1,-1,-1,-1,-1,-1,-1,-1,-1,-1,-1,-1,-1,-1,-1,-1,-1,-1,-1,-1,-1,-1,-1,-1,-1,-1,-1],"split_conditions":[2E1,3.9E-1,3.9E-1,5E-1,5.08E1,5E-1,6.56E1,5.59E1,2.93E-1,4.53E1,5.6E-1,2.02E-1,4.53E1,2.93E-1,5.6E-1,4.53E1,2.6E-1,2.6E-1,4.53E1,5.6E-1,5E-1,5.59E1,5.85E-1,7.5E-1,2.6E-1,2.93E-1,5.59E1,5.6E-1,4.53E1,5.85E-1,2.93E-1,2.8224502E0,4.3083122E1,-4.3232423E-1,-1.8146397E1,7.358889E1,4.4753963E1,6.1109077E1,1.0197273E2,1.5554122E1,-4.3229748E1,-1.4469759E1,7.427644E1,1.7489187E1,-3.5923187E1,-9.470744E1,-4.6041267E1,-1.4884727E2,-2.071465E0,-5.0594954E0,-7.633163E1,-2.0229687E1,3.5321507E0,3.421039E1,-9.332412E0,-2.6618439E1,-6.967933E1,-2.602307E1,2.8628172E1,-8.42293E1,-4.0260925E1,-1.2789468E2,-6.688373E1],"split_indices":[1,0,0,5,2,5,3,2,6,2,0,6,2,6,0,2,0,0,2,0,5,2,5,4,0,6,2,0,2,5,6,0,0,0,0,0,0,0,0,0,0,0,0,0,0,0,0,0,0,0,0,0,0,0,0,0,0,0,0,0,0,0,0],"split_type":[0,0,0,0,0,0,0,0,0,0,0,0,0,0,0,0,0,0,0,0,0,0,0,0,0,0,0,0,0,0,0,0,0,0,0,0,0,0,0,0,0,0,0,0,0,0,0,0,0,0,0,0,0,0,0,0,0,0,0,0,0,0,0],"sum_hessian":[6.21E2,3.19E2,3.02E2,1.65E2,1.54E2,1.6E2,1.42E2,2.7E1,1.38E2,7.9E1,7.5E1,4E1,1.2E2,6.6E1,7.6E1,2.1E1,6E0,9.6E1,4.2E1,3.8E1,4.1E1,3.6E1,3.9E1,1.1E1,2.9E1,2.9E1,9.1E1,4.4E1,2.2E1,3.8E1,3.8E1,8E0,1.3E1,2E0,4E0,5.1E1,4.5E1,1E1,3.2E1,2.2E1,1.6E1,5E0,3.6E1,2.1E1,1.5E1,1.7E1,2.2E1,7E0,4E0,1.5E1,1.4E1,2.1E1,8E0,6.1E1,3E1,2.1E1,2.3E1,1.1E1,1.1E1,1.7E1,2.1E1,2.7E1,1.1E1],"tree_param":{"num_deleted":"0","num_feature":"8","num_nodes":"63","size_leaf_vector":"1"}},{"base_weights":[-4.075421E0,2.7590314E2,-2.997489E2,5.689219E2,-3.96905E1,-1.5176442E2,-7.475982E2,3.4113932E0,6.2098596E2,2.573797E2,-3.5187372E2,-6.656473E2,-3.615355E1,-4.4384277E2,-1.01660724E3,1.4571902E2,-1.0765137E2,3.6190762E2,7.011945E2,-8.7746704E1,5.7172614E2,-4.671657E1,-6.253472E2,-7.227913E2,3.181556E2,2.5537044E2,-1.748005E2,-7.7822736E2,-8.6098045E1,-1.1556199E3,-6.0752716E1,-2.2469728E0,3.774606E1,-3.2425076E1,-4.0045104E0,2.7291357E1,5.555372E1,8.615874E1,5.2287228E1,1.4066329E1,-3.916104E1,-1.3263948E1,6.704955E1,-5.7386658E1,7.382428E0,-7.4860344E1,-2.3234428E1,-8.004546E1,-1.9057617E0,5.2437572E1,-4.7142334E0,-9.2637794E1,2.9050589E1,-4.2881427E0,-5.107359E1,-9.0201195E1,-4.3716644E1,-7.87675E1,4.2774243E0,-1.2766906E2,-7.5817184E1],"categories":[],"categories_nodes":[],"categories_segments":[],"categories_sizes":[],"default_left":[0,0,0,0,0,0,0,0,0,0,0,0,0,0,0,0,0,0,0,0,0,0,0,0,0,0,0,0,0,0,0,0,0,0,0,0,0,0,0,0,0,0,0,0,0,0,0,0,0,0,0,0,0,0,0,0,0,0,0,0,0],"id":9,"left_children":[1,3,5,7,9,11,13,15,17,19,21,23,25,27,29,31,33,35,37,39,41,43,45,47,49,51,53,55,57,59,-1,-1,-1,-1,-1,-1,-1,-1,-1,-1,-1,-1,-1,-1,-1,-1,-1,-1,-1,-1,-1,-1,-1,-1,-1,-1,-1,-1,-1,-1,-1],"loss_changes":[5.1573252E7,2.961453E7,1.996779E7,4.885384E6,1.4465317E7,1.3580925E7,5.677256E6,2.5276303E5,2.90484E6,8.729308E6,6.313167E6,2.591136E6,7.643394E6,4.3590955E6,1.515756E6,2.8131572E5,1.1880662E5,5.03198E5,2.838688E6,2.7618995E6,3.010863E6,2.3934602E6,1.763668E6,2.170914E6,2.5071566E5,2.8019138E6,5.6505835E6,4.07814E5,1.7515546E6,3.79388E5,0E0,0E0,0E0,0E0,0E0,0E0,0E0,0E0,0E0,0E0,0E0,0E0,0E0,0E0,0E0,0E0,0E0,0E0,0E0,0E0,0E0,0E0,0E0,0E0,0E0,0E0,0E0,0E0,0E0,0E0,0E0],"parents":[2147483647,0,0,1,1,2,2,3,3,4,4,5,5,6,6,7,7,8,8,9,9,10,10,11,11,12,12,13,13,14,14,15,15,16,16,17,17,18,18,19,19,20,20,21,21,22,22,23,23,24,24,25,25,26,26,27,27,28,28,29,29],"right_children":[2,4,6,8,10,12,14,16,18,20,22,24,26,28,30,32,34,36,38,40,42,44,46,48,50,52,54,56,58,60,-1,-1,-1,-1,-1,-1,-1,-1,-1,-1,-1,-1,-1,-1,-1,-1,-1,-1,-1,-1,-1,-1,-1,-1,-1,-1,-1,-1,-1,-1,-1],"split_conditions":[2E1,3.9E-1,5.6E-1,3.8E-1,5.08E1,3.8E-1,5.08E1,5.08E1,4.53E1,4.53E1,5.6E-1,2.93E-1,2.6E-1,4.53E1,2.93E-1,4.53E1,1E-1,2.93E-1,2.6E-1,5.6E-1,5E-1,5E-1,2.93E-1,6.64E0,2.1E-2,1E-1,5.59E1,2.93E-1,5E-1,5.85E-1,-6.0752716E1,-2.2469728E0,3.774606E1,-3.2425076E1,-4.0045104E0,2.7291357E1,5.555372E1,8.615874E1,5.2287228E1,1.4066329E1,-3.916104E1,-1.3263948E1,6.704955E1,-5.7386658E1,7.382428E0,-7.4860344E1,-2.3234428E1,-8.004546E1,-1.9057617E0,5.2437572E1,-4.7142334E0,-9.2637794E1,2.9050589E1,-4.2881427E0,-5.107359E1,-9.0201195E1,-4.3716644E1,-7.87675E1,4.2774243E0,-1.2766906E2,-7.5817184E1],"split_indices":[1,0,0,5,2,5,2,2,2,2,0,6,0,2,6,2,0,6,0,0,5,5,6,4,5,0,2,6,4,7,0,0,0,0,0,0,0,0,0,0,0,0,0,0,0,0,0,0,0,0,0,0,0,0,0,0,0,0,0,0,0],"split_type":[0,0,0,0,0,0,0,0,0,0,0,0,0,0,0,0,0,0,0,0,0,0,0,0,0,0,0,0,0,0,0,0,0,0,0,0,0,0,0,0,0,0,0,0,0,0,0,0,0,0,0,0,0,0,0,0,0,0,0,0,0],"sum_hessian":[6.21E2,3.19E2,3.02E2,1.65E2,1.54E2,2.28E2,7.4E1,1.4E1,1.51E2,7.9E1,7.5E1,4.1E1,1.87E2,3.6E1,3.8E1,6E0,8E0,3.7E1,1.14E2,3.8E1,4.1E1,3.6E1,3.9E1,3.9E1,2E0,6E1,1.27E2,1.8E1,1.8E1,2.7E1,1.1E1,4E0,2E0,1E0,7E0,2.7E1,1E1,5.8E1,5.6E1,2.2E1,1.6E1,5E0,3.6E1,6E0,3E1,2.9E1,1E1,3.5E1,4E0,1E0,1E0,1E0,5.9E1,9.2E1,3.5E1,1.2E1,6E0,2E0,1.6E1,1.9E1,8E0],"tree_param":{"num_deleted":"0","num_feature":"8","num_nodes":"61","size_leaf_vector":"1"}},{"base_weights":[-4.5117097E0,2.4862836E2,-2.7183948E2,5.133572E2,-3.649174E1,-4.776406E1,-5.222192E2,1.4767416E2,5.833267E2,1.1915393E2,-5.360956E2,-9.348705E2,2.995505E1,-1.16523735E2,-4.2621487E2,3.1305673E2,-1.6527864E1,4.878395E2,7.851625E2,-1.2518748E1,4.6268027E2,-1.0520956E2,-4.2259265E2,-1.3406279E3,-1.7533009E1,1.02694016E2,-6.266926E2,-2.917704E2,-7.542213E2,-3.0803808E1,3.845285E1,6.212558E0,-1.8625986E1,3.8968723E1,6.8423836E1,5.0503384E1,8.5474594E1,-1.4153488E1,2.7942581E1,3.1654316E1,7.6714134E1,-2.2643702E1,-5.4488667E1,-1.6787015E2,-7.344288E1,-2.2643507E1,1.9721338E1,2.7211592E1,-5.851368E0,-3.5806423E1,-8.169845E1,-4.2239635E1,-2.5320299E0,-8.6622444E1,-5.1634327E1],"categories":[],"categories_nodes":[],"categories_segments":[],"categories_sizes":[],"default_left":[0,0,0,0,0,0,0,0,0,0,0,0,0,0,0,0,0,0,0,0,0,0,0,0,0,0,0,0,0,0,0,0,0,0,0,0,0,0,0,0,0,0,0,0,0,0,0,0,0,0,0,0,0,0,0],"id":10,"left_children":[1,3,5,7,9,11,13,15,17,19,21,23,25,-1,27,29,31,33,35,37,39,-1,41,43,45,47,49,51,53,-1,-1,-1,-1,-1,-1,-1,-1,-1,-1,-1,-1,-1,-1,-1,-1,-1,-1,-1,-1,-1,-1,-1,-1,-1,-1],"loss_changes":[4.215918E7,2.4172176E7,1.6974552E7,4.161248E6,1.2116861E7,1.1128168E7,8.331112E6,7.6554644E5,2.29588E6,5.3885225E6,1.722391E6,4.815309E6,7.1811745E6,0E0,5.33637E6,7.399199E5,2.118216E5,1.603228E6,4.0649E5,3.316452E6,1.2254385E6,0E0,6.442545E5,6.11572E5,2.6896084E5,3.7030575E6,4.74234E5,3.1565875E6,5.1188E5,0E0,0E0,0E0,0E0,0E0,0E0,0E0,0E0,0E0,0E0,0E0,0E0,0E0,0E0,0E0,0E0,0E0,0E0,0E0,0E0,0E0,0E0,0E0,0E0,0E0,0E0],"parents":[2147483647,0,0,1,1,2,2,3,3,4,4,5,5,6,6,7,7,8,8,9,9,10,10,11,11,12,12,14,14,15,15,16,16,17,17,18,18,19,19,20,20,22,22,23,23,24,24,25,25,26,26,27,27,28,28],"right_children":[2,4,6,8,10,12,14,16,18,20,22,24,26,-1,28,30,32,34,36,38,40,-1,42,44,46,48,50,52,54,-1,-1,-1,-1,-1,-1,-1,-1,-1,-1,-1,-1,-1,-1,-1,-1,-1,-1,-1,-1,-1,-1,-1,-1,-1,-1],"split_conditions":[2E1,3.9E-1,3.9E-1,5E-1,5.59E1,2.02E-1,3.8E-1,2.6E-1,2.93E-1,2.93E-1,5E-1,7.5E-1,3.75E1,-1.16523735E2,5.59E1,1E-1,5.59E1,7.5E-1,4.53E1,7.5E-1,7.5E-1,-1.0520956E2,5.6E-1,6.5E-2,1.843E1,2.6E-1,2.6E-1,2.93E-1,2.93E-1,-3.0803808E1,3.845285E1,6.212558E0,-1.8625986E1,3.8968723E1,6.8423836E1,5.0503384E1,8.5474594E1,-1.4153488E1,2.7942581E1,3.1654316E1,7.6714134E1,-2.2643702E1,-5.4488667E1,-1.6787015E2,-7.344288E1,-2.2643507E1,1.9721338E1,2.7211592E1,-5.851368E0,-3.5806423E1,-8.169845E1,-4.2239635E1,-2.5320299E0,-8.6622444E1,-5.1634327E1],"split_indices":[1,0,0,5,2,6,7,0,6,6,5,4,1,0,2,0,2,5,2,5,5,0,0,6,4,0,0,6,6,0,0,0,0,0,0,0,0,0,0,0,0,0,0,0,0,0,0,0,0,0,0,0,0,0,0],"split_type":[0,0,0,0,0,0,0,0,0,0,0,0,0,0,0,0,0,0,0,0,0,0,0,0,0,0,0,0,0,0,0,0,0,0,0,0,0,0,0,0,0,0,0,0,0,0,0,0,0,0,0,0,0,0,0],"sum_hessian":[6.21E2,3.19E2,3.02E2,1.65E2,1.54E2,1.6E2,1.42E2,2.7E1,1.38E2,1.18E2,3.6E1,1.2E1,1.48E2,1.7E1,1.25E2,1.3E1,1.4E1,9.6E1,4.2E1,8.6E1,3.2E1,5E0,3.1E1,8E0,4E0,1.34E2,1.4E1,9E1,3.5E1,1E0,1.2E1,1E1,4E0,6.6E1,3E1,1E1,3.2E1,6E1,2.6E1,2.3E1,9E0,1.3E1,1.8E1,4E0,4E0,2E0,2E0,6.5E1,6.9E1,7E0,7E0,6E1,3E1,2.2E1,1.3E1],"tree_param":{"num_deleted":"0","num_feature":"8","num_nodes":"55","size_leaf_vector":"1"}},{"base_weights":[-4.8024607E0,1.284873E2,-4.250775E2,3.6044046E2,-1.2023326E2,-1.20274155E2,-7.048925E2,2.5843674E2,6.573477E2,-5.0858862E2,-1.1688813E1,-5.454879E2,2.644119E2,-1.2519568E2,-5.864572E2,4.972151E2,1.269448E2,8.125354E2,5.641027E2,-5.387456E2,4.8455128E1,8.004617E1,-2.585731E2,-6.62647E2,-2.6571252E2,-8.474116E1,5.3806384E2,-4.3909967E2,-7.2930273E2,9.141583E0,5.4461475E1,-7.392372E0,2.8163727E1,3.7414318E1,9.261491E1,6.1472614E1,2.7211243E1,-2.4247429E1,-6.623219E1,-1.5158811E1,1.9758589E1,-8.397179E0,-5.298398E1,-4.867456E1,-7.740446E1,-6.764657E0,-3.975244E1,-5.578661E1,9.028499E0,7.342403E1,2.292282E1,-5.2112057E1,-2.1277037E1,-8.113387E1,-5.249647E1],"categories":[],"categories_nodes":[],"categories_segments":[],"categories_sizes":[],"default_left":[0,0,0,0,0,0,0,0,0,0,0,0,0,0,0,0,0,0,0,0,0,0,0,0,0,0,0,0,0,0,0,0,0,0,0,0,0,0,0,0,0,0,0,0,0,0,0,0,0,0,0,0,0,0,0],"id":11,"left_children":[1,3,5,7,9,11,13,15,17,19,21,23,25,-1,27,29,31,33,35,37,-1,39,41,43,45,47,49,51,53,-1,-1,-1,-1,-1,-1,-1,-1,-1,-1,-1,-1,-1,-1,-1,-1,-1,-1,-1,-1,-1,-1,-1,-1,-1,-1],"loss_changes":[3.489804E7,2.7331428E7,1.2708502E7,7.250102E6,9.647279E6,1.2085121E7,4.319536E6,5.714008E6,4.38816E5,1.758554E6,4.0973245E6,9.71163E5,3.7719065E6,0E0,1.069022E6,1.200471E6,3.749561E6,6.99443E5,4.53549E5,1.633399E6,0E0,3.6238135E6,2.2763205E6,9.3518E4,2.8639825E5,1.5409331E6,1.164589E6,5.388515E5,1.10494E5,0E0,0E0,0E0,0E0,0E0,0E0,0E0,0E0,0E0,0E0,0E0,0E0,0E0,0E0,0E0,0E0,0E0,0E0,0E0,0E0,0E0,0E0,0E0,0E0,0E0,0E0],"parents":[2147483647,0,0,1,1,2,2,3,3,4,4,5,5,6,6,7,7,8,8,9,9,10,10,11,11,12,12,14,14,15,15,16,16,17,17,18,18,19,19,21,21,22,22,23,23,24,24,25,25,26,26,27,27,28,28],"right_children":[2,4,6,8,10,12,14,16,18,20,22,24,26,-1,28,30,32,34,36,38,-1,40,42,44,46,48,50,52,54,-1,-1,-1,-1,-1,-1,-1,-1,-1,-1,-1,-1,-1,-1,-1,-1,-1,-1,-1,-1,-1,-1,-1,-1,-1,-1],"split_conditions":[5.6E-1,2E1,5.08E1,2.93E-1,5E-1,4.53E1,5E-1,2.6E-1,2.6E-1,3.8E-1,5.59E1,2.93E-1,5.85E-1,-1.2519568E2,2E1,3.8E-1,5.85E-1,4.53E1,5.59E1,6.56E1,4.8455128E1,4.53E1,3.9E-1,2E1,2E1,3.8E-1,2E1,2.93E-1,2.93E-1,9.141583E0,5.4461475E1,-7.392372E0,2.8163727E1,3.7414318E1,9.261491E1,6.1472614E1,2.7211243E1,-2.4247429E1,-6.623219E1,-1.5158811E1,1.9758589E1,-8.397179E0,-5.298398E1,-4.867456E1,-7.740446E1,-6.764657E0,-3.975244E1,-5.578661E1,9.028499E0,7.342403E1,2.292282E1,-5.2112057E1,-2.1277037E1,-8.113387E1,-5.249647E1],"split_indices":[0,1,2,6,5,2,5,0,0,6,2,6,5,0,1,5,5,2,2,3,0,2,0,1,1,5,1,6,6,0,0,0,0,0,0,0,0,0,0,0,0,0,0,0,0,0,0,0,0,0,0,0,0,0,0],"split_type":[0,0,0,0,0,0,0,0,0,0,0,0,0,0,0,0,0,0,0,0,0,0,0,0,0,0,0,0,0,0,0,0,0,0,0,0,0,0,0,0,0,0,0,0,0,0,0,0,0,0,0,0,0,0,0],"sum_hessian":[6.21E2,4.72E2,1.49E2,2.44E2,2.28E2,7.2E1,7.7E1,1.83E2,6.1E1,4.9E1,1.79E2,3.4E1,3.8E1,1.2E1,6.5E1,6.4E1,1.19E2,2E1,4.1E1,4.8E1,1E0,1.31E2,4.8E1,2.3E1,1.1E1,1.7E1,2.1E1,3.4E1,3.1E1,7E0,5.7E1,5.2E1,6.7E1,5E0,1.5E1,3.4E1,7E0,1.5E1,3.3E1,4.4E1,8.7E1,3E1,1.8E1,1.1E1,1.2E1,5E0,6E0,4E0,1.3E1,1.2E1,9E0,2.4E1,1E1,2E1,1.1E1],"tree_param":{"num_deleted":"0","num_feature":"8","num_nodes":"55","size_leaf_vector":"1"}},{"base_weights":[-4.725668E0,1.16070465E2,-3.8560464E2,3.256336E2,-1.08641495E2,-1.0993178E2,-6.3866254E2,2.3305174E2,5.9514056E2,-2.1546016E2,2.1000423E2,-4.9587057E2,2.3924232E2,-1.1363916E2,-5.309483E2,4.4847214E2,1.1442359E2,5.0412558E2,7.488304E1,-3.8960934E2,-2.4027767E1,4.1716858E2,8.1149635E1,-6.0163574E2,-2.430177E2,-7.8864586E1,4.8863696E2,-3.9728674E2,-6.6054846E2,1.9955147E1,5.256799E1,-6.6670623E0,2.5388784E1,6.588724E1,4.0322105E1,-7.814492E1,-3.0714613E1,2.0230759E1,-1.2507417E1,1.1710571E1,4.5838345E1,1.685593E1,-1.4077861E1,-4.421275E1,-7.025945E1,-6.200936E0,-3.634509E1,-5.132368E1,8.190154E0,6.664645E1,2.0859762E1,-4.7111404E1,-1.6560713E1,-7.340684E1,-4.7684288E1],"categories":[],"categories_nodes":[],"categories_segments":[],"categories_sizes":[],"default_left":[0,0,0,0,0,0,0,0,0,0,0,0,0,0,0,0,0,0,0,0,0,0,0,0,0,0,0,0,0,0,0,0,0,0,0,0,0,0,0,0,0,0,0,0,0,0,0,0,0,0,0,0,0,0,0],"id":12,"left_children":[1,3,5,7,9,11,13,15,17,19,21,23,25,-1,27,29,31,33,-1,35,37,39,41,43,45,47,49,51,53,-1,-1,-1,-1,-1,-1,-1,-1,-1,-1,-1,-1,-1,-1,-1,-1,-1,-1,-1,-1,-1,-1,-1,-1,-1,-1],"loss_changes":[2.8662174E7,2.230958E7,1.0393966E7,5.974408E6,7.839791E6,9.956101E6,3.578412E6,4.650789E6,4.89756E5,5.7247405E6,1.5144035E6,7.89797E5,3.1325682E6,0E0,8.80862E5,1.144308E6,3.0476675E6,3.90144E5,0E0,2.668095E6,1.9235442E6,2.1839575E5,7.414804E5,7.5854E4,2.3905556E5,1.299017E6,9.565475E5,5.206295E5,8.2157E4,0E0,0E0,0E0,0E0,0E0,0E0,0E0,0E0,0E0,0E0,0E0,0E0,0E0,0E0,0E0,0E0,0E0,0E0,0E0,0E0,0E0,0E0,0E0,0E0,0E0,0E0],"parents":[2147483647,0,0,1,1,2,2,3,3,4,4,5,5,6,6,7,7,8,8,9,9,10,10,11,11,12,12,14,14,15,15,16,16,17,17,19,19,20,20,21,21,22,22,23,23,24,24,25,25,26,26,27,27,28,28],"right_children":[2,4,6,8,10,12,14,16,18,20,22,24,26,-1,28,30,32,34,-1,36,38,40,42,44,46,48,50,52,54,-1,-1,-1,-1,-1,-1,-1,-1,-1,-1,-1,-1,-1,-1,-1,-1,-1,-1,-1,-1,-1,-1,-1,-1,-1,-1],"split_conditions":[5.6E-1,2E1,5.08E1,2.93E-1,3.8E-1,4.53E1,5E-1,2.6E-1,7.5E-1,6.3E-1,2.6E-1,2.93E-1,5.85E-1,-1.1363916E2,2E1,4.53E1,5.85E-1,2.6E-1,7.488304E1,2.02E-1,2.6E-1,4.53E1,5.59E1,2E1,2E1,3.8E-1,2E1,7.5E-1,2.93E-1,1.9955147E1,5.256799E1,-6.6670623E0,2.5388784E1,6.588724E1,4.0322105E1,-7.814492E1,-3.0714613E1,2.0230759E1,-1.2507417E1,1.1710571E1,4.5838345E1,1.685593E1,-1.4077861E1,-4.421275E1,-7.025945E1,-6.200936E0,-3.634509E1,-5.132368E1,8.190154E0,6.664645E1,2.0859762E1,-4.7111404E1,-1.6560713E1,-7.340684E1,-4.7684288E1],"split_indices":[0,1,2,6,6,2,5,0,5,5,0,6,5,0,1,2,5,0,0,6,0,2,2,1,1,5,1,5,6,0,0,0,0,0,0,0,0,0,0,0,0,0,0,0,0,0,0,0,0,0,0,0,0,0,0],"split_type":[0,0,0,0,0,0,0,0,0,0,0,0,0,0,0,0,0,0,0,0,0,0,0,0,0,0,0,0,0,0,0,0,0,0,0,0,0,0,0,0,0,0,0,0,0,0,0,0,0,0,0,0,0,0,0],"sum_hessian":[6.21E2,4.72E2,1.49E2,2.44E2,2.28E2,7.2E1,7.7E1,1.83E2,6.1E1,1.71E2,5.7E1,3.4E1,3.8E1,1.2E1,6.5E1,6.4E1,1.19E2,4.1E1,2E1,8.9E1,8.2E1,2.1E1,3.6E1,2.3E1,1.1E1,1.7E1,2.1E1,3.4E1,3.1E1,1.6E1,4.8E1,5.2E1,6.7E1,1.4E1,2.7E1,1.4E1,7.5E1,2.5E1,5.7E1,3E0,1.8E1,2.6E1,1E1,1.1E1,1.2E1,5E0,6E0,4E0,1.3E1,1.2E1,9E0,2.5E1,9E0,2E1,1.1E1],"tree_param":{"num_deleted":"0","num_feature":"8","num_nodes":"55","size_leaf_vector":"1"}},{"base_weights":[-4.5416994E0,1.8351884E2,-2.1094977E2,3.867152E2,-2.7127851E1,-7.803446E1,-5.831346E2,3.0262036E2,6.06112E2,-7.335139E2,3.4685215E1,9.4168396E1,-2.7817276E2,-1.0971199E2,-4.82374E2,-2.7794857E1,3.4570935E2,2.720787E2,6.820626E2,-1.1145967E3,9.913789E1,9.3945076E1,-5.0096585E2,-9.567475E0,3.648003E2,-3.907024E2,-7.840269E0,-3.5336646E2,-5.8364813E2,1.0597286E1,-1.2874811E1,4.067926E1,1.2664119E1,3.3845936E1,4.370768E-1,7.515325E1,5.013442E1,-1.5578218E2,-6.3334724E1,-1.1508773E1,2.8031754E1,2.3352736E1,-3.9003148E0,-2.576489E1,-6.8166214E1,-1.1111226E1,2.2020287E1,1.1767884E1,4.671279E1,-5.670647E1,-2.3543596E1,1.6172533E1,-1.2344619E1,-6.1372772E1,-2.8242075E1,-6.74969E1,-3.919318E1],"categories":[],"categories_nodes":[],"categories_segments":[],"categories_sizes":[],"default_left":[0,0,0,0,0,0,0,0,0,0,0,0,0,0,0,0,0,0,0,0,0,0,0,0,0,0,0,0,0,0,0,0,0,0,0,0,0,0,0,0,0,0,0,0,0,0,0,0,0,0,0,0,0,0,0,0,0],"id":13,"left_children":[1,3,5,7,9,11,13,15,17,19,21,23,25,-1,27,29,31,33,35,37,39,41,43,45,47,49,51,53,55,-1,-1,-1,-1,-1,-1,-1,-1,-1,-1,-1,-1,-1,-1,-1,-1,-1,-1,-1,-1,-1,-1,-1,-1,-1,-1,-1,-1],"loss_changes":[2.4183018E7,1.3964154E7,1.4646805E7,2.879302E6,7.0553285E6,7.60836E6,3.510358E6,1.746553E6,9.56076E5,4.23552E6,4.7767115E6,3.344324E6,3.0998205E6,0E0,6.69121E5,2.162081E5,1.393674E6,1.7622694E5,7.5186E4,9.33075E5,2.263277E5,2.5143325E6,4.8386725E5,2.0543496E6,7.795115E5,1.838079E6,6.276507E5,4.17759E5,3.65736E5,0E0,0E0,0E0,0E0,0E0,0E0,0E0,0E0,0E0,0E0,0E0,0E0,0E0,0E0,0E0,0E0,0E0,0E0,0E0,0E0,0E0,0E0,0E0,0E0,0E0,0E0,0E0,0E0],"parents":[2147483647,0,0,1,1,2,2,3,3,4,4,5,5,6,6,7,7,8,8,9,9,10,10,11,11,12,12,14,14,15,15,16,16,17,17,18,18,19,19,20,20,21,21,22,22,23,23,24,24,25,25,26,26,27,27,28,28],"right_children":[2,4,6,8,10,12,14,16,18,20,22,24,26,-1,28,30,32,34,36,38,40,42,44,46,48,50,52,54,56,-1,-1,-1,-1,-1,-1,-1,-1,-1,-1,-1,-1,-1,-1,-1,-1,-1,-1,-1,-1,-1,-1,-1,-1,-1,-1,-1,-1],"split_conditions":[3.9E-1,2E1,5.59E1,7.5E-1,2.02E-1,2E1,5E-1,3.8E-1,4.53E1,7.5E-1,3.75E1,2.93E-1,2.93E-1,-1.0971199E2,2E1,5.08E1,5.59E1,5.85E-1,5.59E1,5.8E-2,1.843E1,2.6E-1,2.6E-1,7.5E-1,4.53E1,5.85E-1,5.6E-1,3.8E-1,2.93E-1,1.0597286E1,-1.2874811E1,4.067926E1,1.2664119E1,3.3845936E1,4.370768E-1,7.515325E1,5.013442E1,-1.5578218E2,-6.3334724E1,-1.1508773E1,2.8031754E1,2.3352736E1,-3.9003148E0,-2.576489E1,-6.8166214E1,-1.1111226E1,2.2020287E1,1.1767884E1,4.671279E1,-5.670647E1,-2.3543596E1,1.6172533E1,-1.2344619E1,-6.1372772E1,-2.8242075E1,-6.74969E1,-3.919318E1],"split_indices":[0,1,2,5,6,1,5,5,2,4,1,6,6,0,1,2,2,7,2,6,4,0,0,5,2,5,0,7,6,0,0,0,0,0,0,0,0,0,0,0,0,0,0,0,0,0,0,0,0,0,0,0,0,0,0,0,0],"split_type":[0,0,0,0,0,0,0,0,0,0,0,0,0,0,0,0,0,0,0,0,0,0,0,0,0,0,0,0,0,0,0,0,0,0,0,0,0,0,0,0,0,0,0,0,0,0,0,0,0,0,0,0,0,0,0,0,0],"sum_hessian":[6.21E2,3.25E2,2.96E2,1.65E2,1.6E2,2.19E2,7.7E1,1.21E2,4.4E1,1.2E1,1.48E2,1.18E2,1.01E2,1.1E1,6.6E1,1.4E1,1.07E2,9E0,3.5E1,8E0,4E0,1.34E2,1.4E1,8.6E1,3.2E1,7.1E1,3E1,3.1E1,3.5E1,6E0,8E0,8.3E1,2.4E1,7E0,2E0,2.3E1,1.2E1,3E0,5E0,2E0,2E0,6.5E1,6.9E1,7E0,7E0,6E1,2.6E1,1E1,2.2E1,3.2E1,3.9E1,1.2E1,1.8E1,5E0,2.6E1,2.2E1,1.3E1],"tree_param":{"num_deleted":"0","num_feature":"8","num_nodes":"57","size_leaf_vector":"1"}},{"base_weights":[-4.6975865E0,9.7597435E1,-3.2723657E2,2.6958575E2,-8.683374E1,-9.000112E1,-5.450693E2,1.8992177E2,5.0165976E2,-1.776957E2,1.8411607E2,-4.3781937E2,2.2445117E2,-7.498642E2,-3.60937E2,3.6910956E2,9.1279045E1,3.210702E1,5.5246344E2,-3.2525208E2,-1.555387E1,3.557765E2,7.707161E1,-5.279904E1,-2.2099226E2,-4.450507E2,3.136814E2,-1.05125626E2,-6.2620734E2,-2.5302408E2,-4.619399E2,1.4919411E1,4.378739E1,1.6325766E1,-1.6269384E1,7.359637E1,4.434489E1,-1.2754375E1,-4.546957E1,5.724451E0,-2.2000595E1,9.080848E0,3.9283417E1,-5.579996E0,1.8096424E1,-6.664844E0,-3.2171665E1,-5.2324196E1,-6.614282E0,5.2662403E1,5.7234836E0,-6.814991E1,-4.337582E1,-3.1530775E1,-6.561747E0,-5.198697E1,-3.0282026E1],"categories":[],"categories_nodes":[],"categories_segments":[],"categories_sizes":[],"default_left":[0,0,0,0,0,0,0,0,0,0,0,0,0,0,0,0,0,0,0,0,0,0,0,0,0,0,0,0,0,0,0,0,0,0,0,0,0,0,0,0,0,0,0,0,0,0,0,0,0,0,0,0,0,0,0,0,0],"id":14,"left_children":[1,3,5,7,9,11,13,15,17,19,21,23,25,27,29,31,33,-1,35,37,39,41,43,-1,45,47,49,-1,51,53,55,-1,-1,-1,-1,-1,-1,-1,-1,-1,-1,-1,-1,-1,-1,-1,-1,-1,-1,-1,-1,-1,-1,-1,-1,-1,-1],"loss_changes":[2.0554286E7,1.5026972E7,7.702587E6,4.43427E6,5.6704745E6,8.082443E6,2.670676E6,3.2186125E6,3.91446E5,4.1100525E6,1.0383471E6,5.676215E5,2.4694565E6,6.83388E5,3.51797E5,9.17625E5,2.2202345E6,0E0,6.13835E5,2.245294E6,1.2479478E6,1.803475E5,5.2085975E5,0E0,1.6511238E5,1.13527625E5,1.8811532E6,0E0,2.338E3,2.4777488E5,3.61465E4,0E0,0E0,0E0,0E0,0E0,0E0,0E0,0E0,0E0,0E0,0E0,0E0,0E0,0E0,0E0,0E0,0E0,0E0,0E0,0E0,0E0,0E0,0E0,0E0,0E0,0E0],"parents":[2147483647,0,0,1,1,2,2,3,3,4,4,5,5,6,6,7,7,8,8,9,9,10,10,11,11,12,12,13,13,14,14,15,15,16,16,18,18,19,19,20,20,21,21,22,22,24,24,25,25,26,26,28,28,29,29,30,30],"right_children":[2,4,6,8,10,12,14,16,18,20,22,24,26,28,30,32,34,-1,36,38,40,42,44,-1,46,48,50,-1,52,54,56,-1,-1,-1,-1,-1,-1,-1,-1,-1,-1,-1,-1,-1,-1,-1,-1,-1,-1,-1,-1,-1,-1,-1,-1,-1,-1],"split_conditions":[5.6E-1,2E1,5.08E1,2.93E-1,3.8E-1,4.53E1,5.85E-1,2.6E-1,4.53E1,6.3E-1,2.6E-1,2.93E-1,3.8E-1,3.8E-1,2E1,4.53E1,5.59E1,3.210702E1,2.6E-1,6.56E1,5.59E1,4.53E1,5.85E-1,-5.279904E1,2E1,3.8E-1,2E1,-1.05125626E2,2.93E-1,2.93E-1,2.93E-1,1.4919411E1,4.378739E1,1.6325766E1,-1.6269384E1,7.359637E1,4.434489E1,-1.2754375E1,-4.546957E1,5.724451E0,-2.2000595E1,9.080848E0,3.9283417E1,-5.579996E0,1.8096424E1,-6.664844E0,-3.2171665E1,-5.2324196E1,-6.614282E0,5.2662403E1,5.7234836E0,-6.814991E1,-4.337582E1,-3.1530775E1,-6.561747E0,-5.198697E1,-3.0282026E1],"split_indices":[0,1,2,6,6,2,5,0,2,5,0,6,5,5,1,2,2,0,0,3,2,2,5,0,1,7,1,0,6,6,6,0,0,0,0,0,0,0,0,0,0,0,0,0,0,0,0,0,0,0,0,0,0,0,0,0,0],"split_type":[0,0,0,0,0,0,0,0,0,0,0,0,0,0,0,0,0,0,0,0,0,0,0,0,0,0,0,0,0,0,0,0,0,0,0,0,0,0,0,0,0,0,0,0,0,0,0,0,0,0,0,0,0,0,0,0,0],"sum_hessian":[6.21E2,4.72E2,1.49E2,2.44E2,2.28E2,7.2E1,7.7E1,1.83E2,6.1E1,1.71E2,5.7E1,3.4E1,3.8E1,3.5E1,4.2E1,6.4E1,1.19E2,1.5E1,4.6E1,8.9E1,8.2E1,2.1E1,3.6E1,2.3E1,1.1E1,4E0,3.4E1,8E0,2.7E1,2.2E1,2E1,1.6E1,4.8E1,9.3E1,2.6E1,1.5E1,3.1E1,3.6E1,5.3E1,6.1E1,2.1E1,3E0,1.8E1,1.6E1,2E1,5E0,6E0,3E0,1E0,1.8E1,1.6E1,1.9E1,8E0,1.6E1,6E0,1.3E1,7E0],"tree_param":{"num_deleted":"0","num_feature":"8","num_nodes":"57","size_leaf_vector":"1"}},{"base_weights":[-4.604037E0,1.5377435E2,-1.7843149E2,-2.5336545E2,2.2498326E2,-6.5360794E1,-4.9506125E2,-5.834118E2,-1.3055551E2,3.5286185E2,7.01602E1,7.727931E1,-2.3113347E2,-9.3110016E1,-4.0957574E2,-9.143196E2,1.289045E2,7.038481E1,-4.299603E2,1.6237283E2,4.127377E2,-1.4581386E2,1.3845953E2,-2.9388763E2,1.3363885E2,-3.2800235E2,1.308263E0,-4.7614108E2,-2.4109258E2,-1.4316405E2,-5.6199352E1,-7.710205E0,2.9194288E1,2.4480225E1,-1.4214351E1,-2.0758707E1,-5.9858852E1,1.0467109E1,2.9448881E1,5.0283073E1,2.0922182E1,-2.1150045E1,1.3278028E0,2.5193182E1,-8.92422E0,-1.6544487E1,-4.3539333E1,-6.133188E0,2.2921509E1,-4.7423042E1,-1.9916416E1,-1.6114258E1,9.871336E0,-5.1534023E1,-2.5337376E1,-2.9702917E1,-8.678666E0],"categories":[],"categories_nodes":[],"categories_segments":[],"categories_sizes":[],"default_left":[0,0,0,0,0,0,0,0,0,0,0,0,0,0,0,0,0,0,0,0,0,0,0,0,0,0,0,0,0,0,0,0,0,0,0,0,0,0,0,0,0,0,0,0,0,0,0,0,0,0,0,0,0,0,0,0,0],"id":15,"left_children":[1,3,5,7,9,11,13,15,17,19,21,23,25,-1,27,29,31,33,35,37,39,41,43,45,47,49,51,53,55,-1,-1,-1,-1,-1,-1,-1,-1,-1,-1,-1,-1,-1,-1,-1,-1,-1,-1,-1,-1,-1,-1,-1,-1,-1,-1,-1,-1],"loss_changes":[1.7151418E7,9.50839E6,1.0600703E7,1.9099485E6,5.479241E6,5.2199445E6,2.526094E6,3.1821025E6,2.256275E6,1.666648E6,1.8935515E6,2.5286115E6,2.297099E6,0E0,6.36619E5,8.358185E5,1.9044425E5,8.8737594E5,4.3821675E5,2.5886169E5,2.003364E6,3.2676462E5,2.5287528E6,2.1877238E5,1.9520535E6,1.262013E6,5.0643662E5,2.79844E5,1.5548012E5,0E0,0E0,0E0,0E0,0E0,0E0,0E0,0E0,0E0,0E0,0E0,0E0,0E0,0E0,0E0,0E0,0E0,0E0,0E0,0E0,0E0,0E0,0E0,0E0,0E0,0E0,0E0,0E0],"parents":[2147483647,0,0,1,1,2,2,3,3,4,4,5,5,6,6,7,7,8,8,9,9,10,10,11,11,12,12,14,14,15,15,16,16,17,17,18,18,19,19,20,20,21,21,22,22,23,23,24,24,25,25,26,26,27,27,28,28],"right_children":[2,4,6,8,10,12,14,16,18,20,22,24,26,-1,28,30,32,34,36,38,40,42,44,46,48,50,52,54,56,-1,-1,-1,-1,-1,-1,-1,-1,-1,-1,-1,-1,-1,-1,-1,-1,-1,-1,-1,-1,-1,-1,-1,-1,-1,-1,-1,-1],"split_conditions":[3.9E-1,3.8E-1,5.59E1,2.02E-1,2E1,2E1,5E-1,7.5E-1,3.75E1,4.53E1,4.53E1,5E-1,2.93E-1,-9.3110016E1,7.5E-1,3.3E-2,1.843E1,2.6E-1,2.6E-1,2.93E-1,5.59E1,7.5E-1,5.59E1,5.08E1,4.53E1,5.85E-1,4.53E1,7.07E-1,2.93E-1,-1.4316405E2,-5.6199352E1,-7.710205E0,2.9194288E1,2.4480225E1,-1.4214351E1,-2.0758707E1,-5.9858852E1,1.0467109E1,2.9448881E1,5.0283073E1,2.0922182E1,-2.1150045E1,1.3278028E0,2.5193182E1,-8.92422E0,-1.6544487E1,-4.3539333E1,-6.133188E0,2.2921509E1,-4.7423042E1,-1.9916416E1,-1.6114258E1,9.871336E0,-5.1534023E1,-2.5337376E1,-2.9702917E1,-8.678666E0],"split_indices":[0,5,2,6,1,1,5,4,1,2,2,5,6,0,5,5,4,0,0,6,2,5,2,2,2,5,2,7,6,0,0,0,0,0,0,0,0,0,0,0,0,0,0,0,0,0,0,0,0,0,0,0,0,0,0,0,0],"split_type":[0,0,0,0,0,0,0,0,0,0,0,0,0,0,0,0,0,0,0,0,0,0,0,0,0,0,0,0,0,0,0,0,0,0,0,0,0,0,0,0,0,0,0,0,0,0,0,0,0,0,0,0,0,0,0,0,0],"sum_hessian":[6.21E2,3.25E2,2.96E2,4.8E1,2.77E2,2.19E2,7.7E1,1.2E1,3.6E1,1.51E2,1.26E2,1.18E2,1.01E2,1.1E1,6.6E1,8E0,4E0,2.2E1,1.4E1,3.7E1,1.14E2,3E1,9.6E1,1.5E1,1.03E2,7.1E1,3E1,4.6E1,2E1,2E0,6E0,2E0,2E0,1.2E1,1E1,7E0,7E0,2.7E1,1E1,7.8E1,3.6E1,2.1E1,9E0,6.4E1,3.2E1,9E0,6E0,3.4E1,6.9E1,3.2E1,3.9E1,1.1E1,1.9E1,3.8E1,8E0,1.4E1,6E0],"tree_param":{"num_deleted":"0","num_feature":"8","num_nodes":"57","size_leaf_vector":"1"}},{"base_weights":[-4.892682E0,8.2160324E1,-2.7936722E2,2.230717E2,-6.895517E1,-7.463725E1,-4.673918E2,8.480825E1,3.2789987E2,-1.4782094E2,1.661115E2,-3.8003397E2,2.013505E2,-6.411144E2,-3.110801E2,1.4985057E2,-1.5925284E2,2.6192224E2,4.9636884E2,-2.7245746E2,-1.0891908E1,3.1298422E2,7.429226E1,-4.584579E1,-1.9151656E2,-5.4040283E1,4.011543E2,-8.907072E1,-5.3799114E1,-2.1925533E2,-3.968368E2,3.1983564E1,5.1316257E0,-2.3515444E1,9.499406E0,4.0786602E1,1.829523E1,3.1638493E1,5.413161E1,-7.299261E1,-2.2508148E1,1.53044E1,-8.419263E0,3.6440792E1,1.5073235E1,-4.278842E0,1.6553413E1,-5.5983157E0,-2.8032856E1,-1.9305117E1,2.5615665E1,5.193443E1,2.073919E1,-2.7446486E1,-5.3852887E0,-4.4384277E1,-2.6497175E1],"categories":[],"categories_nodes":[],"categories_segments":[],"categories_sizes":[],"default_left":[0,0,0,0,0,0,0,0,0,0,0,0,0,0,0,0,0,0,0,0,0,0,0,0,0,0,0,0,0,0,0,0,0,0,0,0,0,0,0,0,0,0,0,0,0,0,0,0,0,0,0,0,0,0,0,0,0],"id":16,"left_children":[1,3,5,7,9,11,13,15,17,19,21,23,25,27,29,31,33,35,37,39,41,43,45,-1,47,49,51,-1,-1,53,55,-1,-1,-1,-1,-1,-1,-1,-1,-1,-1,-1,-1,-1,-1,-1,-1,-1,-1,-1,-1,-1,-1,-1,-1,-1,-1],"loss_changes":[1.4884917E7,1.0087393E7,5.739256E6,3.523199E6,4.26992E6,6.2293805E6,1.91864E6,1.7224142E6,1.415E6,2.932446E6,7.589206E5,4.29647E5,2.0117724E6,4.47404E5,2.515985E5,1.4072829E6,4.661863E5,1.100948E6,1.36148E5,1.7862795E6,1.0102647E6,1.2863075E5,4.0234134E5,0E0,1.2875019E5,8.256248E5,3.9610925E5,0E0,0E0,1.9525025E5,1.256175E4,0E0,0E0,0E0,0E0,0E0,0E0,0E0,0E0,0E0,0E0,0E0,0E0,0E0,0E0,0E0,0E0,0E0,0E0,0E0,0E0,0E0,0E0,0E0,0E0,0E0,0E0],"parents":[2147483647,0,0,1,1,2,2,3,3,4,4,5,5,6,6,7,7,8,8,9,9,10,10,11,11,12,12,13,13,14,14,15,15,16,16,17,17,18,18,19,19,20,20,21,21,22,22,24,24,25,25,26,26,29,29,30,30],"right_children":[2,4,6,8,10,12,14,16,18,20,22,24,26,28,30,32,34,36,38,40,42,44,46,-1,48,50,52,-1,-1,54,56,-1,-1,-1,-1,-1,-1,-1,-1,-1,-1,-1,-1,-1,-1,-1,-1,-1,-1,-1,-1,-1,-1,-1,-1,-1,-1],"split_conditions":[5.6E-1,2E1,5.08E1,5.85E-1,3.8E-1,4.53E1,5.85E-1,5.59E1,2.93E-1,6.3E-1,2.6E-1,2.93E-1,5.85E-1,3.8E-1,2E1,2.6E-1,2.93E-1,2.6E-1,4.53E1,2.5E-1,2.6E-1,5.59E1,5.85E-1,-4.584579E1,2E1,2.93E-1,2E1,-8.907072E1,-5.3799114E1,2.93E-1,2.93E-1,3.1983564E1,5.1316257E0,-2.3515444E1,9.499406E0,4.0786602E1,1.829523E1,3.1638493E1,5.413161E1,-7.299261E1,-2.2508148E1,1.53044E1,-8.419263E0,3.6440792E1,1.5073235E1,-4.278842E0,1.6553413E1,-5.5983157E0,-2.8032856E1,-1.9305117E1,2.5615665E1,5.193443E1,2.073919E1,-2.7446486E1,-5.3852887E0,-4.4384277E1,-2.6497175E1],"split_indices":[0,1,2,5,6,2,5,2,6,5,0,6,5,5,1,0,6,0,2,4,0,2,5,0,1,6,1,0,0,6,6,0,0,0,0,0,0,0,0,0,0,0,0,0,0,0,0,0,0,0,0,0,0,0,0,0,0],"split_type":[0,0,0,0,0,0,0,0,0,0,0,0,0,0,0,0,0,0,0,0,0,0,0,0,0,0,0,0,0,0,0,0,0,0,0,0,0,0,0,0,0,0,0,0,0,0,0,0,0,0,0,0,0,0,0,0,0],"sum_hessian":[6.21E2,4.72E2,1.49E2,2.44E2,2.28E2,7.2E1,7.7E1,1.06E2,1.38E2,1.71E2,5.7E1,3.4E1,3.8E1,3.5E1,4.2E1,8.4E1,2.2E1,1.01E2,3.7E1,8.9E1,8.2E1,2.1E1,3.6E1,2.3E1,1.1E1,1.7E1,2.1E1,8E0,2.7E1,2.2E1,2E1,3E1,5.4E1,1.7E1,5E0,3.4E1,6.7E1,9E0,2.8E1,7E0,8.2E1,2.5E1,5.7E1,1.5E1,6E0,1.6E1,2E1,5E0,6E0,1.2E1,5E0,1.2E1,9E0,1.6E1,6E0,1.3E1,7E0],"tree_param":{"num_deleted":"0","num_feature":"8","num_nodes":"57","size_leaf_vector":"1"}},{"base_weights":[-4.5705423E0,7.424689E1,-2.530777E2,2.0144995E2,-6.2167946E1,-6.718036E1,-4.2381396E2,1.306125E2,3.839149E2,-2.2371544E1,-4.7692175E2,-3.4430145E2,1.8324063E2,-5.809714E2,-2.8238416E2,7.067737E1,3.2300537E2,1.8695491E2,4.4092267E2,-6.830842E2,3.7765968E0,-2.709726E2,-5.9164013E1,-4.1452246E2,-1.7516765E2,-3.7130225E2,2.572256E2,-8.115331E1,-4.8611332E1,-1.9875742E2,-3.6052847E2,1.2669032E1,-1.1707422E1,4.459714E1,2.4559483E1,2.510353E1,-1.7045116E0,5.220829E1,2.4311726E1,-1.1817285E2,1.1099231E1,1.709894E1,-8.360156E0,-4.506316E1,6.6259036E0,-3.0554361E1,-4.8323196E1,-5.1318035E0,-2.563005E1,-4.4167236E1,-4.491089E0,4.256624E1,5.3841796E0,-4.107903E1,-1.4641296E1,-2.5312704E1,-4.199856E1],"categories":[],"categories_nodes":[],"categories_segments":[],"categories_sizes":[],"default_left":[0,0,0,0,0,0,0,0,0,0,0,0,0,0,0,0,0,0,0,0,0,0,0,0,0,0,0,0,0,0,0,0,0,0,0,0,0,0,0,0,0,0,0,0,0,0,0,0,0,0,0,0,0,0,0,0,0],"id":17,"left_children":[1,3,5,7,9,11,13,15,17,19,21,23,25,27,29,31,33,35,37,39,41,43,-1,45,47,49,51,-1,-1,53,55,-1,-1,-1,-1,-1,-1,-1,-1,-1,-1,-1,-1,-1,-1,-1,-1,-1,-1,-1,-1,-1,-1,-1,-1,-1,-1],"loss_changes":[1.2201715E7,8.220201E6,4.732441E6,3.116566E6,3.769138E6,5.129067E6,1.56963E6,2.0297055E6,6.81088E5,3.6306255E6,3.12205E5,3.4307525E5,1.6955939E6,3.92846E5,2.0934525E5,1.4555955E6,2.90264E5,2.2650975E5,7.07877E5,3.2988568E6,2.9802762E6,5.751387E5,0E0,3.20605E4,1.0742644E5,9.500506E4,1.1760878E6,0E0,0E0,1.9512612E5,2.77915E4,0E0,0E0,0E0,0E0,0E0,0E0,0E0,0E0,0E0,0E0,0E0,0E0,0E0,0E0,0E0,0E0,0E0,0E0,0E0,0E0,0E0,0E0,0E0,0E0,0E0,0E0],"parents":[2147483647,0,0,1,1,2,2,3,3,4,4,5,5,6,6,7,7,8,8,9,9,10,10,11,11,12,12,13,13,14,14,15,15,16,16,17,17,18,18,19,19,20,20,21,21,23,23,24,24,25,25,26,26,29,29,30,30],"right_children":[2,4,6,8,10,12,14,16,18,20,22,24,26,28,30,32,34,36,38,40,42,44,-1,46,48,50,52,-1,-1,54,56,-1,-1,-1,-1,-1,-1,-1,-1,-1,-1,-1,-1,-1,-1,-1,-1,-1,-1,-1,-1,-1,-1,-1,-1,-1,-1],"split_conditions":[5.6E-1,2E1,5.08E1,7.5E-1,3.75E1,4.53E1,5.85E-1,2.93E-1,4.53E1,6.5E-2,2.6E-1,2.93E-1,3.8E-1,3.8E-1,2E1,5.59E1,2.6E-1,5.85E-1,5.59E1,2.5E-1,2.6E-1,7.5E-1,-5.9164013E1,2E1,2E1,3.8E-1,2E1,-8.115331E1,-4.8611332E1,3.8E-1,5.59E1,1.2669032E1,-1.1707422E1,4.459714E1,2.4559483E1,2.510353E1,-1.7045116E0,5.220829E1,2.4311726E1,-1.1817285E2,1.1099231E1,1.709894E1,-8.360156E0,-4.506316E1,6.6259036E0,-3.0554361E1,-4.8323196E1,-5.1318035E0,-2.563005E1,-4.4167236E1,-4.491089E0,4.256624E1,5.3841796E0,-4.107903E1,-1.4641296E1,-2.5312704E1,-4.199856E1],"split_indices":[0,1,2,5,1,2,5,6,2,6,0,6,5,5,1,2,0,7,2,4,0,4,0,1,1,7,1,0,0,7,2,0,0,0,0,0,0,0,0,0,0,0,0,0,0,0,0,0,0,0,0,0,0,0,0,0,0],"split_type":[0,0,0,0,0,0,0,0,0,0,0,0,0,0,0,0,0,0,0,0,0,0,0,0,0,0,0,0,0,0,0,0,0,0,0,0,0,0,0,0,0,0,0,0,0,0,0,0,0,0,0,0,0,0,0,0,0],"sum_hessian":[6.21E2,4.72E2,1.49E2,2.44E2,2.28E2,7.2E1,7.7E1,1.77E2,6.7E1,2.09E2,1.9E1,3.4E1,3.8E1,3.5E1,4.2E1,1.36E2,4.1E1,1.6E1,5.1E1,7E0,2.02E2,8E0,1.1E1,2.3E1,1.1E1,4E0,3.4E1,8E0,2.7E1,2.2E1,2E1,1.05E2,3.1E1,1.4E1,2.7E1,1.2E1,4E0,3.5E1,1.6E1,4E0,3E0,6.9E1,1.33E2,5E0,3E0,1.1E1,1.2E1,5E0,6E0,3E0,1E0,1.8E1,1.6E1,3E0,1.9E1,9E0,1.1E1],"tree_param":{"num_deleted":"0","num_feature":"8","num_nodes":"57","size_leaf_vector":"1"}},{"base_weights":[-4.738949E0,1.19840225E2,-1.4146646E2,-5.3340515E2,1.48676E2,1.6650522E1,-2.924113E2,-8.108863E2,1.2823808E2,2.5433212E2,2.608074E1,-1.6277592E2,1.886779E2,-4.4074246E2,-1.7030623E2,-1.198225E2,-4.73709E1,-6.635596E1,2.800861E1,8.274458E1,3.09075E2,6.669114E1,-3.3302945E2,-2.012446E1,-3.130039E2,-3.5181128E2,2.4077568E2,-5.670844E2,-2.8088638E2,-6.523781E1,-2.667282E2,-2.1479322E1,1.1525928E1,-9.338705E0,1.26934E1,3.9012268E1,1.2955733E1,-1.3246242E1,1.3174491E1,-1.4968162E1,-4.7474865E1,-9.682137E0,1.1827177E1,-3.7635685E1,-1.6021444E1,-1.4741846E1,-4.682513E1,3.6462234E1,7.720165E0,-4.1589188E1,-6.884304E1,-1.4454043E1,-3.789032E1,5.279902E0,-1.9771826E1,-3.2198162E1,-1.2532942E1],"categories":[],"categories_nodes":[],"categories_segments":[],"categories_sizes":[],"default_left":[0,0,0,0,0,0,0,0,0,0,0,0,0,0,0,0,0,0,0,0,0,0,0,0,0,0,0,0,0,0,0,0,0,0,0,0,0,0,0,0,0,0,0,0,0,0,0,0,0,0,0,0,0,0,0,0,0],"id":18,"left_children":[1,3,5,7,9,11,13,15,17,19,21,23,25,27,29,-1,-1,31,-1,33,35,37,39,41,43,45,47,49,51,53,55,-1,-1,-1,-1,-1,-1,-1,-1,-1,-1,-1,-1,-1,-1,-1,-1,-1,-1,-1,-1,-1,-1,-1,-1,-1,-1],"loss_changes":[1.0611728E7,6.2201125E6,7.0933505E6,2.6742952E6,4.0476365E6,4.5371865E6,2.677961E6,7.384085E5,1.6632898E5,1.552483E6,2.1514168E6,1.5366785E6,2.1965792E6,1.214077E6,8.43726E5,0E0,0E0,1.0563232E5,0E0,3.387464E5,1.797243E6,1.7276021E6,3.1869738E5,4.148046E5,2.7849E5,9.756769E4,1.3696592E6,3.92513E5,3.7288725E5,6.672174E5,3.03408E5,0E0,0E0,0E0,0E0,0E0,0E0,0E0,0E0,0E0,0E0,0E0,0E0,0E0,0E0,0E0,0E0,0E0,0E0,0E0,0E0,0E0,0E0,0E0,0E0,0E0,0E0],"parents":[2147483647,0,0,1,1,2,2,3,3,4,4,5,5,6,6,7,7,8,8,9,9,10,10,11,11,12,12,13,13,14,14,17,17,19,19,20,20,21,21,22,22,23,23,24,24,25,25,26,26,27,27,28,28,29,29,30,30],"right_children":[2,4,6,8,10,12,14,16,18,20,22,24,26,28,30,-1,-1,32,-1,34,36,38,40,42,44,46,48,50,52,54,56,-1,-1,-1,-1,-1,-1,-1,-1,-1,-1,-1,-1,-1,-1,-1,-1,-1,-1,-1,-1,-1,-1,-1,-1,-1,-1],"split_conditions":[3.9E-1,2.02E-1,6.56E1,7.5E-1,2.5E1,4.53E1,5.85E-1,5.8E-2,1.843E1,4.53E1,3.75E1,5.6E-1,3.8E-1,4.09E-1,5.59E1,-1.198225E2,-4.73709E1,2.1E-2,2.800861E1,5E-1,5.59E1,4.53E1,2.6E-1,7.5E-1,2.93E-1,2E1,2E1,5.59E1,2E1,5.6E-1,2.93E-1,-2.1479322E1,1.1525928E1,-9.338705E0,1.26934E1,3.9012268E1,1.2955733E1,-1.3246242E1,1.3174491E1,-1.4968162E1,-4.7474865E1,-9.682137E0,1.1827177E1,-3.7635685E1,-1.6021444E1,-1.4741846E1,-4.682513E1,3.6462234E1,7.720165E0,-4.1589188E1,-6.884304E1,-1.4454043E1,-3.789032E1,5.279902E0,-1.9771826E1,-3.2198162E1,-1.2532942E1],"split_indices":[0,6,3,4,1,2,5,6,4,2,1,0,5,7,2,0,0,5,0,5,2,2,0,5,6,1,1,2,1,0,6,0,0,0,0,0,0,0,0,0,0,0,0,0,0,0,0,0,0,0,0,0,0,0,0,0,0],"split_type":[0,0,0,0,0,0,0,0,0,0,0,0,0,0,0,0,0,0,0,0,0,0,0,0,0,0,0,0,0,0,0,0,0,0,0,0,0,0,0,0,0,0,0,0,0,0,0,0,0,0,0,0,0,0,0,0,0],"sum_hessian":[6.21E2,3.25E2,2.96E2,1.3E1,3.12E2,1.45E2,1.51E2,9E0,4E0,1.67E2,1.45E2,7.1E1,7.4E1,6.7E1,8.4E1,3E0,6E0,2E0,2E0,4.1E1,1.26E2,1.31E2,1.4E1,3.7E1,3.4E1,6E0,6.8E1,3.6E1,3.1E1,4.1E1,4.3E1,1E0,1E0,8E0,3.3E1,8.6E1,4E1,3.2E1,9.9E1,7E0,7E0,2.4E1,1.3E1,2.3E1,1.1E1,3E0,3E0,3.8E1,3E1,1.8E1,1.8E1,1.4E1,1.7E1,2.2E1,1.9E1,3E1,1.3E1],"tree_param":{"num_deleted":"0","num_feature":"8","num_nodes":"57","size_leaf_vector":"1"}},{"base_weights":[-4.9840198E0,1.07376755E2,-1.2829927E2,-4.9071735E2,1.337855E2,-4.4523205E1,-3.6294583E2,-7.4651697E2,1.1902529E2,2.292283E2,2.3044584E1,-1.2080936E2,1.4750433E2,-6.793992E1,-3.0085056E2,-1.10835815E2,-4.3310522E2,-6.3038086E1,2.6141357E1,1.7151648E2,3.8316248E2,6.0021572E1,-3.0388922E2,-1.9342752E2,6.0205048E1,2.596478E2,2.3367613E1,-2.0359595E2,-3.789421E2,-1.2889575E1,-4.6232418E1,-2.0405348E1,1.0949634E1,2.5236025E1,8.107714E0,1.5830693E1,4.3497894E1,-1.1961772E1,1.1870233E1,-1.3658439E1,-4.3320793E1,-4.2807457E1,-1.4446205E1,-9.073392E0,1.4373029E1,1.646794E1,4.6160713E1,-1.1102149E1,1.0283269E1,-4.3332146E1,-1.4500525E1,-4.328821E1,-2.3498861E1],"categories":[],"categories_nodes":[],"categories_segments":[],"categories_sizes":[],"default_left":[0,0,0,0,0,0,0,0,0,0,0,0,0,0,0,0,0,0,0,0,0,0,0,0,0,0,0,0,0,0,0,0,0,0,0,0,0,0,0,0,0,0,0,0,0,0,0,0,0,0,0,0,0],"id":19,"left_children":[1,3,5,7,9,11,13,15,17,19,21,23,25,-1,27,-1,29,31,-1,33,35,37,39,41,43,45,47,49,51,-1,-1,-1,-1,-1,-1,-1,-1,-1,-1,-1,-1,-1,-1,-1,-1,-1,-1,-1,-1,-1,-1,-1,-1],"loss_changes":[8.632081E6,5.214796E6,5.822196E6,2.272461E6,3.302947E6,3.240609E6,1.328323E6,6.54017E5,1.4609747E5,1.426764E6,1.7832379E6,2.0885452E6,8.709631E5,0E0,4.316985E5,0E0,2.629125E3,9.533313E4,0E0,8.8616025E5,4.55445E5,1.4056595E6,2.6536525E5,1.236485E6,5.92973E5,5.5691475E5,3.424731E5,3.6787912E5,1.778125E5,0E0,0E0,0E0,0E0,0E0,0E0,0E0,0E0,0E0,0E0,0E0,0E0,0E0,0E0,0E0,0E0,0E0,0E0,0E0,0E0,0E0,0E0,0E0,0E0],"parents":[2147483647,0,0,1,1,2,2,3,3,4,4,5,5,6,6,7,7,8,8,9,9,10,10,11,11,12,12,14,14,16,16,17,17,19,19,20,20,21,21,22,22,23,23,24,24,25,25,26,26,27,27,28,28],"right_children":[2,4,6,8,10,12,14,16,18,20,22,24,26,-1,28,-1,30,32,-1,34,36,38,40,42,44,46,48,50,52,-1,-1,-1,-1,-1,-1,-1,-1,-1,-1,-1,-1,-1,-1,-1,-1,-1,-1,-1,-1,-1,-1,-1,-1],"split_conditions":[3.9E-1,2.02E-1,5.59E1,7.5E-1,2.5E1,2.93E-1,5E-1,5.8E-2,1.843E1,7.5E-1,3.75E1,7.5E-1,2E1,-6.793992E1,2E1,-1.10835815E2,4.58E1,2.1E-2,2.6141357E1,2.6E-1,4.53E1,4.53E1,2.6E-1,3.8E-1,4.53E1,7.5E-1,4.53E1,3.8E-1,7.5E-1,-1.2889575E1,-4.6232418E1,-2.0405348E1,1.0949634E1,2.5236025E1,8.107714E0,1.5830693E1,4.3497894E1,-1.1961772E1,1.1870233E1,-1.3658439E1,-4.3320793E1,-4.2807457E1,-1.4446205E1,-9.073392E0,1.4373029E1,1.646794E1,4.6160713E1,-1.1102149E1,1.0283269E1,-4.3332146E1,-1.4500525E1,-4.328821E1,-2.3498861E1],"split_indices":[0,6,2,4,1,6,5,6,4,5,1,5,1,0,1,0,2,5,0,0,2,2,0,5,2,5,2,7,5,0,0,0,0,0,0,0,0,0,0,0,0,0,0,0,0,0,0,0,0,0,0,0,0],"split_type":[0,0,0,0,0,0,0,0,0,0,0,0,0,0,0,0,0,0,0,0,0,0,0,0,0,0,0,0,0,0,0,0,0,0,0,0,0,0,0,0,0,0,0,0,0,0,0,0,0,0,0,0,0],"sum_hessian":[6.21E2,3.25E2,2.96E2,1.3E1,3.12E2,2.19E2,7.7E1,9E0,4E0,1.67E2,1.45E2,1.57E2,6.2E1,1.1E1,6.6E1,3E0,6E0,2E0,2E0,1.23E2,4.4E1,1.31E2,1.4E1,1.12E2,4.5E1,3.2E1,3E1,3.1E1,3.5E1,1E0,5E0,1E0,1E0,6.4E1,5.9E1,9E0,3.5E1,3.2E1,9.9E1,7E0,7E0,1.8E1,9.4E1,1.6E1,2.9E1,2.3E1,9E0,1.1E1,1.9E1,5E0,2.6E1,2.4E1,1.1E1],"tree_param":{"num_deleted":"0","num_feature":"8","num_nodes":"53","size_leaf_vector":"1"}},{"base_weights":[-4.9685016E0,5.640016E1,-1.9845123E2,-2.1866182E2,9.612798E1,-5.1887085E1,-3.33076E2,-2.367913E2,4.2548927E1,1.5207076E2,-7.426302E1,-2.7530527E2,1.4994684E2,-4.553387E2,-2.2297055E2,-7.23685E1,-3.192551E2,-5.1856313E0,2.2959512E2,1.4840303E1,-2.4780208E2,-3.2683032E2,-1.4931303E2,-5.288357E1,3.0908322E2,-6.3527405E1,-3.8124026E2,-2.7043365E2,-9.263773E1,1.5628484E1,-2.2510015E1,-3.715214E1,1.1045997E1,6.9915833E0,-1.0139869E1,3.7668392E1,1.5281169E1,-6.889686E0,2.234412E1,-3.4567657E1,-1.5711235E1,-3.9009434E1,-2.3105843E1,-1.9221365E1,-1.5458374E0,1.3599452E1,-2.175855E1,2.1318336E1,4.502601E1,-3.9732956E1,-1.8537195E1,-3.727644E1,-1.1954886E1,-1.5311945E1,3.444173E-1],"categories":[],"categories_nodes":[],"categories_segments":[],"categories_sizes":[],"default_left":[0,0,0,0,0,0,0,0,0,0,0,0,0,0,0,0,0,0,0,0,0,0,0,0,0,0,0,0,0,0,0,0,0,0,0,0,0,0,0,0,0,0,0,0,0,0,0,0,0,0,0,0,0,0,0],"id":20,"left_children":[1,3,5,7,9,11,13,15,-1,17,19,21,23,25,27,29,31,33,35,37,39,41,43,45,47,-1,49,51,53,-1,-1,-1,-1,-1,-1,-1,-1,-1,-1,-1,-1,-1,-1,-1,-1,-1,-1,-1,-1,-1,-1,-1,-1,-1,-1],"loss_changes":[7.3966815E6,5.1897805E6,2.9423925E6,8.0144025E5,3.957601E6,3.3330968E6,9.48492E5,7.76873E5,0E0,3.8048465E6,1.5963568E6,1.784115E5,1.2751756E6,2.37794E5,2.4094575E5,7.685544E5,9.16963E5,7.585665E5,2.302881E6,1.2206619E6,2.563575E5,5.527925E4,6.593806E4,5.8954494E5,2.018665E5,0E0,1.458475E4,4.34081E5,7.6072945E4,0E0,0E0,0E0,0E0,0E0,0E0,0E0,0E0,0E0,0E0,0E0,0E0,0E0,0E0,0E0,0E0,0E0,0E0,0E0,0E0,0E0,0E0,0E0,0E0,0E0,0E0],"parents":[2147483647,0,0,1,1,2,2,3,3,4,4,5,5,6,6,7,7,9,9,10,10,11,11,12,12,13,13,14,14,15,15,16,16,17,17,18,18,19,19,20,20,21,21,22,22,23,23,24,24,26,26,27,27,28,28],"right_children":[2,4,6,8,10,12,14,16,-1,18,20,22,24,26,28,30,32,34,36,38,40,42,44,46,48,-1,50,52,54,-1,-1,-1,-1,-1,-1,-1,-1,-1,-1,-1,-1,-1,-1,-1,-1,-1,-1,-1,-1,-1,-1,-1,-1,-1,-1],"split_conditions":[5.6E-1,3.8E-1,5.08E1,6.3E-1,5.59E1,4.53E1,5.85E-1,6.56E1,4.2548927E1,4.53E1,3.9E-1,2.93E-1,5.85E-1,3.8E-1,5.85E-1,2.6E-1,6.64E0,2E1,2.6E-1,2.93E-1,4.09E-1,5.85E-1,7.5E-1,2E1,2.93E-1,-6.3527405E1,7.07E-1,2.93E-1,7.5E-1,1.5628484E1,-2.2510015E1,-3.715214E1,1.1045997E1,6.9915833E0,-1.0139869E1,3.7668392E1,1.5281169E1,-6.889686E0,2.234412E1,-3.4567657E1,-1.5711235E1,-3.9009434E1,-2.3105843E1,-1.9221365E1,-1.5458374E0,1.3599452E1,-2.175855E1,2.1318336E1,4.502601E1,-3.9732956E1,-1.8537195E1,-3.727644E1,-1.1954886E1,-1.5311945E1,3.444173E-1],"split_indices":[0,5,2,7,2,2,5,3,0,2,0,6,5,5,7,0,4,1,0,6,7,7,5,1,6,0,7,6,5,0,0,0,0,0,0,0,0,0,0,0,0,0,0,0,0,0,0,0,0,0,0,0,0,0,0],"split_type":[0,0,0,0,0,0,0,0,0,0,0,0,0,0,0,0,0,0,0,0,0,0,0,0,0,0,0,0,0,0,0,0,0,0,0,0,0,0,0,0,0,0,0,0,0,0,0,0,0,0,0,0,0,0,0],"sum_hessian":[6.21E2,4.72E2,1.49E2,5.9E1,4.13E2,7.2E1,7.7E1,5.8E1,1E0,3.11E2,1.02E2,3.4E1,3.8E1,3.5E1,4.2E1,2E1,3.8E1,1.03E2,2.08E2,6.8E1,3.4E1,2.3E1,1.1E1,1.7E1,2.1E1,8E0,2.7E1,3E1,1.2E1,8E0,1.2E1,3.4E1,4E0,5.8E1,4.5E1,7E1,1.38E2,4.9E1,1.9E1,1.5E1,1.9E1,1.2E1,1.1E1,8E0,3E0,8E0,9E0,1.4E1,7E0,2.4E1,3E0,1.7E1,1.3E1,7E0,5E0],"tree_param":{"num_deleted":"0","num_feature":"8","num_nodes":"55","size_leaf_vector":"1"}},{"base_weights":[-4.7709703E0,9.271665E1,-1.0771245E2,3.5719826E1,2.5771085E2,-4.8784878E1,-2.8620178E2,1.3696068E2,-7.28111E1,1.898487E2,3.965736E2,-1.11504036E2,1.3805098E2,-5.7154766E1,-2.3350938E2,3.8827892E1,2.1720493E2,4.6174053E1,-1.9259235E2,2.4278732E2,3.9019287E1,2.2569914E2,4.3655098E1,-1.7068234E2,7.000024E1,4.3351124E1,2.0362291E2,-1.4019722E2,-3.2535638E2,8.672363E0,-1.2995181E1,4.746042E0,2.685213E1,-9.432264E0,1.7611696E1,-3.1981995E1,-4.4854927E0,2.7709238E1,8.621408E0,1.979516E1,-1.0658936E1,2.6677427E1,-1.0375732E0,-1.0915492E1,-3.7213524E1,2.4077864E1,-3.8745746E-1,1.0296287E1,-9.619418E0,2.3814281E1,9.696084E0,-2.9657532E1,3.3626497E0,-3.574586E1,-2.1898565E1],"categories":[],"categories_nodes":[],"categories_segments":[],"categories_sizes":[],"default_left":[0,0,0,0,0,0,0,0,0,0,0,0,0,0,0,0,0,0,0,0,0,0,0,0,0,0,0,0,0,0,0,0,0,0,0,0,0,0,0,0,0,0,0,0,0,0,0,0,0,0,0,0,0,0,0],"id":21,"left_children":[1,3,5,7,9,11,13,15,17,19,21,23,25,-1,27,29,31,33,35,37,39,41,-1,43,45,47,49,51,53,-1,-1,-1,-1,-1,-1,-1,-1,-1,-1,-1,-1,-1,-1,-1,-1,-1,-1,-1,-1,-1,-1,-1,-1,-1,-1],"loss_changes":[6.25208E6,3.0001215E6,3.1729742E6,2.6360478E6,6.974395E5,2.698858E6,9.942055E5,9.680155E5,1.6621468E6,4.4565462E5,7.908E4,1.8594198E6,3.513325E5,0E0,5.1146425E5,4.7204812E5,5.7958175E5,1.0937481E6,1.0758385E6,2.01703E5,3.9137025E5,7.064556E4,0E0,1.5707135E6,5.434304E5,2.1786788E5,1.0209625E5,9.341684E5,3.09935E4,0E0,0E0,0E0,0E0,0E0,0E0,0E0,0E0,0E0,0E0,0E0,0E0,0E0,0E0,0E0,0E0,0E0,0E0,0E0,0E0,0E0,0E0,0E0,0E0,0E0,0E0],"parents":[2147483647,0,0,1,1,2,2,3,3,4,4,5,5,6,6,7,7,8,8,9,9,10,10,11,11,12,12,14,14,15,15,16,16,17,17,18,18,19,19,20,20,21,21,23,23,24,24,25,25,26,26,27,27,28,28],"right_children":[2,4,6,8,10,12,14,16,18,20,22,24,26,-1,28,30,32,34,36,38,40,42,-1,44,46,48,50,52,54,-1,-1,-1,-1,-1,-1,-1,-1,-1,-1,-1,-1,-1,-1,-1,-1,-1,-1,-1,-1,-1,-1,-1,-1,-1,-1],"split_conditions":[2E1,2.93E-1,5.6E-1,3.9E-1,7.5E-1,3.8E-1,5E-1,5.85E-1,5.08E1,5.6E-1,4.53E1,7.5E-1,5.85E-1,-5.7154766E1,5.08E1,5.59E1,4.53E1,4.53E1,4.09E-1,5.59E1,5.08E1,5.6E-1,4.3655098E1,5.59E1,2.6E-1,5.59E1,5.59E1,4.53E1,7.5E-1,8.672363E0,-1.2995181E1,4.746042E0,2.685213E1,-9.432264E0,1.7611696E1,-3.1981995E1,-4.4854927E0,2.7709238E1,8.621408E0,1.979516E1,-1.0658936E1,2.6677427E1,-1.0375732E0,-1.0915492E1,-3.7213524E1,2.4077864E1,-3.8745746E-1,1.0296287E1,-9.619418E0,2.3814281E1,9.696084E0,-2.9657532E1,3.3626497E0,-3.574586E1,-2.1898565E1],"split_indices":[1,6,0,0,5,6,5,5,2,0,2,5,5,0,2,2,2,2,7,2,2,0,0,2,0,2,2,2,5,0,0,0,0,0,0,0,0,0,0,0,0,0,0,0,0,0,0,0,0,0,0,0,0,0,0],"split_type":[0,0,0,0,0,0,0,0,0,0,0,0,0,0,0,0,0,0,0,0,0,0,0,0,0,0,0,0,0,0,0,0,0,0,0,0,0,0,0,0,0,0,0,0,0,0,0,0,0,0,0,0,0,0,0],"sum_hessian":[6.21E2,3.19E2,3.02E2,2.38E2,8.1E1,2.28E2,7.4E1,1.23E2,1.15E2,5.6E1,2.5E1,1.71E2,5.7E1,1E1,6.4E1,5.6E1,6.7E1,5.8E1,5.7E1,4.1E1,1.5E1,6E0,1.9E1,1.29E2,4.2E1,2.4E1,3.3E1,3.3E1,3.1E1,4.4E1,1.2E1,1.6E1,5.1E1,2.8E1,3E1,3E1,2.7E1,3.3E1,8E0,7E0,8E0,5E0,1E0,1E2,2.9E1,1.2E1,3E1,1.7E1,7E0,2.4E1,9E0,1.7E1,1.6E1,2.2E1,9E0],"tree_param":{"num_deleted":"0","num_feature":"8","num_nodes":"55","size_leaf_vector":"1"}},{"base_weights":[-4.3221855E0,-5.984777E1,1.5240231E2,-6.6748104E0,-2.269711E2,3.2797937E2,9.453549E1,-5.694042E1,1.507055E2,-2.9650482E2,-5.3633663E1,4.0715714E1,3.9852292E2,1.8293742E2,-9.213905E0,3.5560673E1,-1.5398433E2,1.9687665E2,-9.194544E0,-3.8077884E2,-1.3807448E2,5.5718605E1,-1.5983101E2,1.6828297E1,3.734436E0,4.6978513E2,2.5823312E2,1.19775085E2,3.253802E2,5.156957E1,-1.5884285E2,7.283541E0,-8.902316E0,-3.7924817E0,-2.4130066E1,3.989851E0,2.5948698E1,8.874797E0,-1.6720182E1,-2.5610306E1,-4.595151E1,-7.2429366E0,-2.03235E1,-1.7074469E1,2.7599094E1,-9.71148E0,-2.0478823E1,-1.6598227E0,4.315495E0,5.75119E1,3.6882698E1,1.5872039E1,3.857095E1,1.6049395E1,-3.177872E0,3.5078907E1,1.789957E1,1.4314456E1,-4.607078E-1,-7.902242E0,-2.9200989E1],"categories":[],"categories_nodes":[],"categories_segments":[],"categories_sizes":[],"default_left":[0,0,0,0,0,0,0,0,0,0,0,0,0,0,0,0,0,0,0,0,0,0,0,0,0,0,0,0,0,0,0,0,0,0,0,0,0,0,0,0,0,0,0,0,0,0,0,0,0,0,0,0,0,0,0,0,0,0,0,0,0],"id":22,"left_children":[1,3,5,7,9,11,13,15,17,19,21,23,25,27,29,31,33,35,37,39,41,43,45,-1,47,49,51,53,55,57,59,-1,-1,-1,-1,-1,-1,-1,-1,-1,-1,-1,-1,-1,-1,-1,-1,-1,-1,-1,-1,-1,-1,-1,-1,-1,-1,-1,-1,-1,-1],"loss_changes":[5.421901E6,4.086249E6,1.6250888E6,2.7773672E6,1.321958E6,7.943575E5,1.1389698E6,2.3932695E6,6.293455E5,1.0021975E6,3.9213194E5,4.1829953E4,1.986015E5,5.63828E5,5.356995E5,6.4268875E5,1.3082548E6,6.38325E5,3.243514E5,3.82958E5,1.0932644E5,8.951452E5,2.8044312E4,0E0,7.128488E3,5.665E2,1.0369181E5,3.01313E5,1.15995E4,2.1672328E5,1.5762534E5,0E0,0E0,0E0,0E0,0E0,0E0,0E0,0E0,0E0,0E0,0E0,0E0,0E0,0E0,0E0,0E0,0E0,0E0,0E0,0E0,0E0,0E0,0E0,0E0,0E0,0E0,0E0,0E0,0E0,0E0],"parents":[2147483647,0,0,1,1,2,2,3,3,4,4,5,5,6,6,7,7,8,8,9,9,10,10,11,11,12,12,13,13,14,14,15,15,16,16,17,17,18,18,19,19,20,20,21,21,22,22,24,24,25,25,26,26,27,27,28,28,29,29,30,30],"right_children":[2,4,6,8,10,12,14,16,18,20,22,24,26,28,30,32,34,36,38,40,42,44,46,-1,48,50,52,54,56,58,60,-1,-1,-1,-1,-1,-1,-1,-1,-1,-1,-1,-1,-1,-1,-1,-1,-1,-1,-1,-1,-1,-1,-1,-1,-1,-1,-1,-1,-1,-1],"split_conditions":[7.5E-1,5.6E-1,2.6E-1,3.8E-1,2.93E-1,4.53E1,2E1,2E1,5.59E1,5.85E-1,5.08E1,3.8E-1,5.59E1,2.93E-1,5.59E1,5.59E1,6.56E1,4.53E1,3.9E-1,5.08E1,2E1,4.53E1,2E1,1.6828297E1,2.93E-1,4.09E-1,2.93E-1,5.59E1,5.59E1,3.9E-1,5.6E-1,7.283541E0,-8.902316E0,-3.7924817E0,-2.4130066E1,3.989851E0,2.5948698E1,8.874797E0,-1.6720182E1,-2.5610306E1,-4.595151E1,-7.2429366E0,-2.03235E1,-1.7074469E1,2.7599094E1,-9.71148E0,-2.0478823E1,-1.6598227E0,4.315495E0,5.75119E1,3.6882698E1,1.5872039E1,3.857095E1,1.6049395E1,-3.177872E0,3.5078907E1,1.789957E1,1.4314456E1,-4.607078E-1,-7.902242E0,-2.9200989E1],"split_indices":[5,0,0,6,6,2,1,1,2,7,2,7,2,6,2,2,3,2,0,2,1,2,1,0,6,7,6,2,2,0,0,0,0,0,0,0,0,0,0,0,0,0,0,0,0,0,0,0,0,0,0,0,0,0,0,0,0,0,0,0,0],"split_type":[0,0,0,0,0,0,0,0,0,0,0,0,0,0,0,0,0,0,0,0,0,0,0,0,0,0,0,0,0,0,0,0,0,0,0,0,0,0,0,0,0,0,0,0,0,0,0,0,0,0,0,0,0,0,0,0,0,0,0,0,0],"sum_hessian":[6.21E2,4.59E2,1.62E2,3.49E2,1.1E2,3.9E1,1.23E2,2.65E2,8.4E1,7.8E1,3.2E1,8E0,3.1E1,6.6E1,5.7E1,1.36E2,1.29E2,6.5E1,1.9E1,5E1,2.8E1,1.6E1,1.6E1,1E0,7E0,1.9E1,1.2E1,4.7E1,1.9E1,4.1E1,1.6E1,1.05E2,3.1E1,5.6E1,7.3E1,1.9E1,4.6E1,1.2E1,7E0,2.1E1,2.9E1,1.5E1,1.3E1,8E0,8E0,8E0,8E0,5E0,2E0,7E0,1.2E1,8E0,4E0,3.7E1,1E1,1.5E1,4E0,1.5E1,2.6E1,1.1E1,5E0],"tree_param":{"num_deleted":"0","num_feature":"8","num_nodes":"61","size_leaf_vector":"1"}},{"base_weights":[-3.7538447E0,-9.820399E1,7.5383606E1,-4.216825E1,-2.7557974E2,1.6365904E2,-1.3335259E1,-3.838534E2,-1.4895327E1,-2.3517337E2,-5.9409626E1,1.4231161E1,2.1257887E2,8.2532875E1,-1.1017437E2,-5.6582935E2,1.2965958E2,2.1028275E2,-9.847572E1,-1.3020605E2,-3.295113E2,-4.3114067E1,1.4988278E2,2.712631E2,9.438032E1,-8.11015E1,2.6410965E2,-3.5030052E1,-1.8627379E2,-9.897882E1,-3.1453327E1,-4.3886557E0,2.5998585E1,-5.569904E0,3.114184E1,-2.8031607E1,-4.9869566E0,-1.8666374E1,2.8542047E0,-3.5220455E1,-1.365269E1,3.5082119E0,-1.2886214E1,2.1804785E1,-2.790918E-1,3.5252632E1,1.9119518E1,2.6980677E0,2.718643E1,4.28033E0,-2.0686731E1,1.9473553E1,3.9855125E1,-2.3434961E1,9.012827E-1,-2.4028889E1,-6.1080112E0],"categories":[],"categories_nodes":[],"categories_segments":[],"categories_sizes":[],"default_left":[0,0,0,0,0,0,0,0,0,0,0,0,0,0,0,0,0,0,0,0,0,0,0,0,0,0,0,0,0,0,0,0,0,0,0,0,0,0,0,0,0,0,0,0,0,0,0,0,0,0,0,0,0,0,0,0,0],"id":23,"left_children":[1,3,5,7,9,11,13,15,17,19,-1,21,23,25,27,29,31,33,35,37,39,41,43,45,47,49,51,53,55,-1,-1,-1,-1,-1,-1,-1,-1,-1,-1,-1,-1,-1,-1,-1,-1,-1,-1,-1,-1,-1,-1,-1,-1,-1,-1,-1,-1],"loss_changes":[4.656569E6,2.8111638E6,2.6571275E6,2.016452E6,7.35451E5,1.2396725E6,1.5873364E6,1.5685172E6,3.8224432E6,5.7104425E5,0E0,3.4095788E5,8.62256E5,2.5766692E6,4.7954206E5,9.6714925E5,1.24498E5,1.4968588E6,1.2941278E6,2.831668E5,9.2057E4,2.1238108E5,1.3589972E5,4.85658E5,5.1900856E5,7.256721E5,3.047855E5,3.8837088E5,2.6934175E5,0E0,0E0,0E0,0E0,0E0,0E0,0E0,0E0,0E0,0E0,0E0,0E0,0E0,0E0,0E0,0E0,0E0,0E0,0E0,0E0,0E0,0E0,0E0,0E0,0E0,0E0,0E0,0E0],"parents":[2147483647,0,0,1,1,2,2,3,3,4,4,5,5,6,6,7,7,8,8,9,9,11,11,12,12,13,13,14,14,15,15,16,16,17,17,18,18,19,19,20,20,21,21,22,22,23,23,24,24,25,25,26,26,27,27,28,28],"right_children":[2,4,6,8,10,12,14,16,18,20,-1,22,24,26,28,30,32,34,36,38,40,42,44,46,48,50,52,54,56,-1,-1,-1,-1,-1,-1,-1,-1,-1,-1,-1,-1,-1,-1,-1,-1,-1,-1,-1,-1,-1,-1,-1,-1,-1,-1,-1,-1],"split_conditions":[6.3E-1,5.59E1,3.9E-1,2.02E-1,3.75E1,4.53E1,5.08E1,7.5E-1,2.6E-1,3.9E-1,-5.9409626E1,2.93E-1,5.59E1,4.53E1,2E1,5.8E-2,1.843E1,4.53E1,3.8E-1,2.93E-1,7.07E-1,2E1,4.09E-1,2.6E-1,2.93E-1,5.6E-1,2.93E-1,3.8E-1,2.93E-1,-9.897882E1,-3.1453327E1,-4.3886557E0,2.5998585E1,-5.569904E0,3.114184E1,-2.8031607E1,-4.9869566E0,-1.8666374E1,2.8542047E0,-3.5220455E1,-1.365269E1,3.5082119E0,-1.2886214E1,2.1804785E1,-2.790918E-1,3.5252632E1,1.9119518E1,2.6980677E0,2.718643E1,4.28033E0,-2.0686731E1,1.9473553E1,3.9855125E1,-2.3434961E1,9.012827E-1,-2.4028889E1,-6.1080112E0],"split_indices":[5,2,0,6,1,2,2,4,0,0,0,6,2,2,1,6,4,2,5,6,7,1,7,0,6,0,6,7,6,0,0,0,0,0,0,0,0,0,0,0,0,0,0,0,0,0,0,0,0,0,0,0,0,0,0,0,0],"split_type":[0,0,0,0,0,0,0,0,0,0,0,0,0,0,0,0,0,0,0,0,0,0,0,0,0,0,0,0,0,0,0,0,0,0,0,0,0,0,0,0,0,0,0,0,0,0,0,0,0,0,0,0,0,0,0,0,0],"sum_hessian":[6.21E2,2.83E2,3.38E2,2.16E2,6.7E1,1.69E2,1.69E2,1.5E1,2.01E2,6.1E1,6E0,4.2E1,1.27E2,8.5E1,8.4E1,1.1E1,4E0,5.4E1,1.47E2,3E1,3.1E1,3E1,1.2E1,8.4E1,4.3E1,4.5E1,4E1,4.3E1,4.1E1,3E0,8E0,2E0,2E0,1.5E1,3.9E1,3E1,1.17E2,2.2E1,8E0,2.7E1,4E0,1.6E1,1.4E1,8E0,4E0,4E1,4.4E1,3.2E1,1.1E1,2.3E1,2.2E1,2.8E1,1.2E1,7E0,3.6E1,2.8E1,1.3E1],"tree_param":{"num_deleted":"0","num_feature":"8","num_nodes":"57","size_leaf_vector":"1"}},{"base_weights":[-3.6256108E0,7.463787E1,-8.626815E1,2.8985388E1,2.0678795E2,-3.826525E1,-2.2424747E2,1.0829069E2,-5.6039116E1,1.5619698E2,3.097455E2,-4.6742084E2,-2.2413607E1,-3.550565E2,-1.2553127E2,6.712011E1,2.2963725E2,3.898569E1,-1.5173608E2,2.847965E2,1.0770419E2,1.7666148E2,3.4083767E1,-7.445545E2,2.4265348E1,-1.5886572E2,4.275763E1,-4.2971603E2,-1.08218155E2,5.6539062E1,-1.776769E2,9.721065E0,-2.9994628E0,5.432652E0,2.6953876E1,-8.28172E0,1.51672735E1,-2.5564688E1,-3.1272845E0,6.4398637E0,3.590868E1,1.3685552E1,-3.693976E0,2.1178947E1,-1.7053223E0,-8.216027E1,-1.7965673E1,-2.1978516E1,-3.3535156E-1,2.2131512E1,-3.176394E0,-4.7547024E1,-1.5160502E1,-1.509344E1,-1.7089233E0,-6.6493554E0,1.363425E1,-1.2350248E1,-2.6402374E1],"categories":[],"categories_nodes":[],"categories_segments":[],"categories_sizes":[],"default_left":[0,0,0,0,0,0,0,0,0,0,0,0,0,0,0,0,0,0,0,0,0,0,0,0,0,0,0,0,0,0,0,0,0,0,0,0,0,0,0,0,0,0,0,0,0,0,0,0,0,0,0,0,0,0,0,0,0,0,0],"id":24,"left_children":[1,3,5,7,9,11,13,15,17,19,21,23,25,27,29,31,33,35,37,39,41,43,-1,45,-1,47,49,51,53,55,57,-1,-1,-1,-1,-1,-1,-1,-1,-1,-1,-1,-1,-1,-1,-1,-1,-1,-1,-1,-1,-1,-1,-1,-1,-1,-1,-1,-1],"loss_changes":[4.0294682E6,1.9245595E6,1.9983112E6,1.61762E6,3.7873425E5,1.526961E6,9.6264075E5,6.040795E5,1.0607715E6,3.2478675E5,4.73715E4,1.7549528E6,1.9543056E6,5.6164875E5,4.467775E5,2.7760584E5,2.02207E5,8.2237194E5,7.1801625E5,2.224765E5,1.863676E5,5.124533E4,0E0,1.1354E5,0E0,6.718969E5,1.989681E6,2.46035E5,3.245482E4,1.1706857E5,1.3579288E5,0E0,0E0,0E0,0E0,0E0,0E0,0E0,0E0,0E0,0E0,0E0,0E0,0E0,0E0,0E0,0E0,0E0,0E0,0E0,0E0,0E0,0E0,0E0,0E0,0E0,0E0,0E0,0E0],"parents":[2147483647,0,0,1,1,2,2,3,3,4,4,5,5,6,6,7,7,8,8,9,9,10,10,11,11,12,12,13,13,14,14,15,15,16,16,17,17,18,18,19,19,20,20,21,21,23,23,25,25,26,26,27,27,28,28,29,29,30,30],"right_children":[2,4,6,8,10,12,14,16,18,20,22,24,26,28,30,32,34,36,38,40,42,44,-1,46,-1,48,50,52,54,56,58,-1,-1,-1,-1,-1,-1,-1,-1,-1,-1,-1,-1,-1,-1,-1,-1,-1,-1,-1,-1,-1,-1,-1,-1,-1,-1,-1,-1],"split_conditions":[2E1,2.93E-1,5.59E1,3.9E-1,7.5E-1,6.5E-2,4.09E-1,7.5E-1,5.08E1,2.6E-1,4.53E1,1.843E1,4.58E1,2.93E-1,2.6E-1,5.59E1,4.53E1,4.53E1,4.09E-1,4.53E1,5.59E1,5.6E-1,3.4083767E1,2.5E-1,2.4265348E1,7.5E-1,2.6E-1,7.5E-1,7.5E-1,5.85E-1,5.6E-1,9.721065E0,-2.9994628E0,5.432652E0,2.6953876E1,-8.28172E0,1.51672735E1,-2.5564688E1,-3.1272845E0,6.4398637E0,3.590868E1,1.3685552E1,-3.693976E0,2.1178947E1,-1.7053223E0,-8.216027E1,-1.7965673E1,-2.1978516E1,-3.3535156E-1,2.2131512E1,-3.176394E0,-4.7547024E1,-1.5160502E1,-1.509344E1,-1.7089233E0,-6.6493554E0,1.363425E1,-1.2350248E1,-2.6402374E1],"split_indices":[1,6,2,0,5,6,7,5,2,0,2,4,2,6,0,2,2,2,7,2,2,0,0,4,0,5,0,5,5,5,0,0,0,0,0,0,0,0,0,0,0,0,0,0,0,0,0,0,0,0,0,0,0,0,0,0,0,0,0],"split_type":[0,0,0,0,0,0,0,0,0,0,0,0,0,0,0,0,0,0,0,0,0,0,0,0,0,0,0,0,0,0,0,0,0,0,0,0,0,0,0,0,0,0,0,0,0,0,0,0,0,0,0,0,0,0,0,0,0,0,0],"sum_hessian":[6.21E2,3.19E2,3.02E2,2.38E2,8.1E1,2.25E2,7.7E1,1.23E2,1.15E2,5.6E1,2.5E1,7E0,2.18E2,3.2E1,4.5E1,9.3E1,3E1,5.8E1,5.7E1,1.4E1,4.2E1,6E0,1.9E1,5E0,2E0,7E1,1.48E2,2.4E1,8E0,1E1,3.5E1,7.1E1,2.2E1,6E0,2.4E1,2.8E1,3E1,3E1,2.7E1,4E0,1E1,3.5E1,7E0,5E0,1E0,4E0,1E0,5E1,2E1,4.3E1,1.05E2,2E1,4E0,5E0,3E0,4E0,6E0,2.3E1,1.2E1],"tree_param":{"num_deleted":"0","num_feature":"8","num_nodes":"59","size_leaf_vector":"1"}},{"base_weights":[-3.3712966E0,-4.820517E1,1.2317443E2,-4.8200107E0,-1.8457094E2,2.6004828E2,7.802823E1,-3.3683435E2,1.1051778E1,-2.4167001E2,-4.2286156E1,3.307449E1,3.1575815E2,1.21595566E2,-5.6596214E1,-4.9514432E2,1.1047646E2,5.4127464E1,-1.2692856E2,-3.1269717E2,-1.08426735E2,5.1710594E1,-1.3379549E2,1.5539844E1,-1.6408081E0,3.6928967E2,2.0911287E2,2.7066378E1,1.722906E2,2.2090235E1,-1.2269624E2,-8.5393394E1,-2.806662E1,-4.2349286E0,2.2647673E1,-7.21896E0,1.1407107E1,-2.3666883E1,-2.6996956E0,-2.3141071E1,-3.7638103E1,-1.5173433E1,-5.118757E0,-1.4047103E1,2.381466E1,-1.7434364E1,-7.8381157E0,-1.1584636E0,1.8793783E0,4.7128277E1,2.781178E1,1.2589361E1,3.1708496E1,8.972406E0,-1.1210188E1,2.5707869E1,6.986656E0,-1.4779607E1,5.959552E0,-5.5013385E0,-2.376126E1],"categories":[],"categories_nodes":[],"categories_segments":[],"categories_sizes":[],"default_left":[0,0,0,0,0,0,0,0,0,0,0,0,0,0,0,0,0,0,0,0,0,0,0,0,0,0,0,0,0,0,0,0,0,0,0,0,0,0,0,0,0,0,0,0,0,0,0,0,0,0,0,0,0,0,0,0,0,0,0,0,0],"id":25,"left_children":[1,3,5,7,9,11,13,15,17,19,21,23,25,27,29,31,33,35,37,39,41,43,45,-1,47,49,51,53,55,57,59,-1,-1,-1,-1,-1,-1,-1,-1,-1,-1,-1,-1,-1,-1,-1,-1,-1,-1,-1,-1,-1,-1,-1,-1,-1,-1,-1,-1,-1,-1],"loss_changes":[3.5348765E6,2.7205858E6,9.8694025E5,1.8481041E6,8.915815E5,4.9534375E5,7.341703E5,1.187722E6,1.9979755E6,7.13743E5,2.9077075E5,3.847359E4,1.05461E5,4.4579975E5,1.6394686E5,6.8376E5,9.823027E4,1.9466412E6,8.7093225E5,1.7691E5,6.4120906E4,6.4255544E5,2.4532875E4,0E0,1.8433035E3,5.4906E4,7.6890625E4,3.0653684E5,5.1178338E5,1.0438248E5,1.1915186E5,0E0,0E0,0E0,0E0,0E0,0E0,0E0,0E0,0E0,0E0,0E0,0E0,0E0,0E0,0E0,0E0,0E0,0E0,0E0,0E0,0E0,0E0,0E0,0E0,0E0,0E0,0E0,0E0,0E0,0E0],"parents":[2147483647,0,0,1,1,2,2,3,3,4,4,5,5,6,6,7,7,8,8,9,9,10,10,11,11,12,12,13,13,14,14,15,15,16,16,17,17,18,18,19,19,20,20,21,21,22,22,24,24,25,25,26,26,27,27,28,28,29,29,30,30],"right_children":[2,4,6,8,10,12,14,16,18,20,22,24,26,28,30,32,34,36,38,40,42,44,46,-1,48,50,52,54,56,58,60,-1,-1,-1,-1,-1,-1,-1,-1,-1,-1,-1,-1,-1,-1,-1,-1,-1,-1,-1,-1,-1,-1,-1,-1,-1,-1,-1,-1,-1,-1],"split_conditions":[7.5E-1,5.6E-1,2.6E-1,2.02E-1,2.93E-1,4.53E1,5.59E1,7.5E-1,5.59E1,5.85E-1,5.08E1,3.8E-1,5.59E1,4.53E1,2E1,5.8E-2,1.843E1,4.53E1,4.09E-1,2E1,7.07E-1,4.53E1,5.85E-1,1.5539844E1,2.93E-1,4.09E-1,2.93E-1,5.6E-1,5.08E1,3.8E-1,5.6E-1,-8.5393394E1,-2.806662E1,-4.2349286E0,2.2647673E1,-7.21896E0,1.1407107E1,-2.3666883E1,-2.6996956E0,-2.3141071E1,-3.7638103E1,-1.5173433E1,-5.118757E0,-1.4047103E1,2.381466E1,-1.7434364E1,-7.8381157E0,-1.1584636E0,1.8793783E0,4.7128277E1,2.781178E1,1.2589361E1,3.1708496E1,8.972406E0,-1.1210188E1,2.5707869E1,6.986656E0,-1.4779607E1,5.959552E0,-5.5013385E0,-2.376126E1],"split_indices":[5,0,0,6,6,2,2,4,2,7,2,7,2,2,1,6,4,2,7,1,7,2,5,0,6,7,6,0,2,7,0,0,0,0,0,0,0,0,0,0,0,0,0,0,0,0,0,0,0,0,0,0,0,0,0,0,0,0,0,0,0],"split_type":[0,0,0,0,0,0,0,0,0,0,0,0,0,0,0,0,0,0,0,0,0,0,0,0,0,0,0,0,0,0,0,0,0,0,0,0,0,0,0,0,0,0,0,0,0,0,0,0,0,0,0,0,0,0,0,0,0,0,0,0,0],"sum_hessian":[6.21E2,4.59E2,1.62E2,3.49E2,1.1E2,3.9E1,1.23E2,1.5E1,3.34E2,7.8E1,3.2E1,8E0,3.1E1,9.3E1,3E1,1.1E1,4E0,2.55E2,7.9E1,5E1,2.8E1,1.6E1,1.6E1,1E0,7E0,1.9E1,1.2E1,3.3E1,6E1,1.4E1,1.6E1,3E0,8E0,2E0,2E0,8.2E1,1.73E2,3.7E1,4.2E1,2.4E1,2.6E1,1.5E1,1.3E1,8E0,8E0,8E0,8E0,5E0,2E0,7E0,1.2E1,8E0,4E0,2.3E1,1E1,3.2E1,2.8E1,2E0,1.2E1,1.1E1,5E0],"tree_param":{"num_deleted":"0","num_feature":"8","num_nodes":"61","size_leaf_vector":"1"}},{"base_weights":[-3.1723804E0,6.5670105E1,-7.5866844E1,2.538157E1,1.822956E2,-5.21217E1,-3.3782803E2,9.370239E1,-4.786984E1,2.841187E2,1.4486687E2,1.7446194E1,-1.2753059E2,-1.6153586E2,-4.1128693E1,2.5387396E1,1.4958846E2,3.542165E1,-1.3177205E2,7.125277E1,3.4618603E1,9.688605E1,2.4078227E2,-3.9976294E2,4.1332718E1,-1.7607698E2,-2.4229399E1,-3.2598278E1,1.2551843E2,5.363464E0,-7.434439E0,2.6029642E0,1.87106E1,-6.804134E0,1.3106697E1,-2.2228046E1,-2.6860158E0,2.190446E0,9.045081E0,1.5435356E1,3.5014627E0,2.6303839E1,1.2140625E1,-6.3870647E1,2.1137842E1,-7.6866274E0,7.8855677E0,-2.3566563E1,-8.676478E0,5.3399305E0,-8.536319E0,2.3441309E1,-1.0058276E1],"categories":[],"categories_nodes":[],"categories_segments":[],"categories_sizes":[],"default_left":[0,0,0,0,0,0,0,0,0,0,0,0,0,0,0,0,0,0,0,0,0,0,0,0,0,0,0,0,0,0,0,0,0,0,0,0,0,0,0,0,0,0,0,0,0,0,0,0,0,0,0,0,0],"id":26,"left_children":[1,3,5,7,9,11,13,15,17,19,21,23,25,27,-1,29,31,33,35,37,-1,39,41,43,45,47,49,-1,51,-1,-1,-1,-1,-1,-1,-1,-1,-1,-1,-1,-1,-1,-1,-1,-1,-1,-1,-1,-1,-1,-1,-1,-1],"loss_changes":[3.1177612E6,1.4989474E6,1.8671445E6,1.200584E6,2.713515E5,1.4658694E6,2.5731825E5,4.696165E5,8.15315E5,2.5278575E5,2.6200188E5,1.4715121E6,6.6773025E5,4.657635E5,0E0,1.6456484E5,3.1035212E5,5.9276725E5,5.4476325E5,3.7030684E3,0E0,1.4748603E5,2.1202375E4,1.3032349E6,6.225506E5,4.63854E5,2.1337072E5,0E0,1.2206276E5,0E0,0E0,0E0,0E0,0E0,0E0,0E0,0E0,0E0,0E0,0E0,0E0,0E0,0E0,0E0,0E0,0E0,0E0,0E0,0E0,0E0,0E0,0E0,0E0],"parents":[2147483647,0,0,1,1,2,2,3,3,4,4,5,5,6,6,7,7,8,8,9,9,10,10,11,11,12,12,13,13,15,15,16,16,17,17,18,18,19,19,21,21,22,22,23,23,24,24,25,25,26,26,28,28],"right_children":[2,4,6,8,10,12,14,16,18,20,22,24,26,28,-1,30,32,34,36,38,-1,40,42,44,46,48,50,-1,52,-1,-1,-1,-1,-1,-1,-1,-1,-1,-1,-1,-1,-1,-1,-1,-1,-1,-1,-1,-1,-1,-1,-1,-1],"split_conditions":[2E1,2.93E-1,3.75E1,3.9E-1,2.6E-1,3.9E-1,2.6E-1,5.85E-1,5.08E1,4.53E1,7.5E-1,6.5E-2,2.93E-1,7.5E-1,-4.1128693E1,5.59E1,4.53E1,4.53E1,4.09E-1,5.85E-1,3.4618603E1,5.08E1,5.59E1,1.843E1,4.58E1,5.85E-1,5.6E-1,-3.2598278E1,5.59E1,5.363464E0,-7.434439E0,2.6029642E0,1.87106E1,-6.804134E0,1.3106697E1,-2.2228046E1,-2.6860158E0,2.190446E0,9.045081E0,1.5435356E1,3.5014627E0,2.6303839E1,1.2140625E1,-6.3870647E1,2.1137842E1,-7.6866274E0,7.8855677E0,-2.3566563E1,-8.676478E0,5.3399305E0,-8.536319E0,2.3441309E1,-1.0058276E1],"split_indices":[1,6,1,0,0,0,0,5,2,2,5,6,6,4,0,2,2,2,7,5,0,2,2,4,2,7,0,0,2,0,0,0,0,0,0,0,0,0,0,0,0,0,0,0,0,0,0,0,0,0,0,0,0],"split_type":[0,0,0,0,0,0,0,0,0,0,0,0,0,0,0,0,0,0,0,0,0,0,0,0,0,0,0,0,0,0,0,0,0,0,0,0,0,0,0,0,0,0,0,0,0,0,0,0,0,0,0,0,0],"sum_hessian":[6.21E2,3.19E2,3.02E2,2.38E2,8.1E1,2.78E2,2.4E1,1.23E2,1.15E2,2E1,6.1E1,1.45E2,1.33E2,8E0,1.6E1,5.6E1,6.7E1,5.8E1,5.7E1,5E0,1.5E1,4.2E1,1.9E1,7E0,1.38E2,9E1,4.3E1,5E0,3E0,4.4E1,1.2E1,1.6E1,5.1E1,2.8E1,3E1,3E1,2.7E1,2E0,3E0,2.1E1,2.1E1,1.5E1,4E0,5E0,2E0,3.3E1,1.05E2,5.3E1,3.7E1,1.9E1,2.4E1,2E0,1E0],"tree_param":{"num_deleted":"0","num_feature":"8","num_nodes":"53","size_leaf_vector":"1"}},{"base_weights":[-2.9105663E0,-7.637878E1,5.8646606E1,-3.4645638E1,-2.0843336E2,9.539353E1,-5.0566944E1,-2.8812427E2,-1.4396609E1,-1.15886955E2,-2.8284018E2,5.8562294E1,1.8949992E2,2.667173E1,-1.2842589E2,-4.2827124E2,1.0585332E2,1.6498938E2,-8.096305E1,-4.14429E1,-1.8774083E2,-3.741359E2,-1.7665813E2,1.1761527E2,-1.4714402E1,1.4608997E2,2.2997618E1,-1.58547E2,2.1909715E2,-1.6365218E2,-3.4545822E1,-7.41986E1,-2.4125677E1,-2.086442E0,1.9728662E1,-4.150348E0,2.434618E1,-2.0062756E1,-3.1656096E0,-9.302744E0,4.553892E0,-2.2578817E1,-5.887905E0,-4.0041912E1,-1.0048575E1,-1.0069071E1,-2.2275347E1,1.8530035E1,8.1047735E0,2.1511333E0,-1.1613627E1,1.6905886E1,4.1695375E0,-2.0088278E1,-5.405707E0,2.7247223E1,1.2779981E1,-2.2064043E1,-7.869214E0,-8.160682E0,3.3959796E0],"categories":[],"categories_nodes":[],"categories_segments":[],"categories_sizes":[],"default_left":[0,0,0,0,0,0,0,0,0,0,0,0,0,0,0,0,0,0,0,0,0,0,0,0,0,0,0,0,0,0,0,0,0,0,0,0,0,0,0,0,0,0,0,0,0,0,0,0,0,0,0,0,0,0,0,0,0,0,0,0,0],"id":27,"left_children":[1,3,5,7,9,11,13,15,17,19,21,23,25,27,29,31,33,35,37,39,41,43,45,47,49,51,-1,53,55,57,59,-1,-1,-1,-1,-1,-1,-1,-1,-1,-1,-1,-1,-1,-1,-1,-1,-1,-1,-1,-1,-1,-1,-1,-1,-1,-1,-1,-1,-1,-1],"loss_changes":[2.8174712E6,1.5579175E6,1.3653196E6,1.1096471E6,4.3547625E5,8.6928025E5,5.206054E5,9.287704E5,2.4254575E6,1.6339047E5,2.925825E5,7.979367E5,9.115475E4,1.602932E6,1.365495E5,5.25021E5,6.2047375E4,9.01324E5,8.66892E5,8.051395E4,6.5151375E4,9.641925E4,4.4103875E4,2.3743962E5,3.0744706E5,8.167069E4,0E0,9.088506E4,7.238425E4,1.3273069E5,4.46826E4,0E0,0E0,0E0,0E0,0E0,0E0,0E0,0E0,0E0,0E0,0E0,0E0,0E0,0E0,0E0,0E0,0E0,0E0,0E0,0E0,0E0,0E0,0E0,0E0,0E0,0E0,0E0,0E0,0E0,0E0],"parents":[2147483647,0,0,1,1,2,2,3,3,4,4,5,5,6,6,7,7,8,8,9,9,10,10,11,11,12,12,13,13,14,14,15,15,16,16,17,17,18,18,19,19,20,20,21,21,22,22,23,23,24,24,25,25,27,27,28,28,29,29,30,30],"right_children":[2,4,6,8,10,12,14,16,18,20,22,24,26,28,30,32,34,36,38,40,42,44,46,48,50,52,-1,54,56,58,60,-1,-1,-1,-1,-1,-1,-1,-1,-1,-1,-1,-1,-1,-1,-1,-1,-1,-1,-1,-1,-1,-1,-1,-1,-1,-1,-1,-1,-1,-1],"split_conditions":[6.3E-1,5.59E1,5.6E-1,2.02E-1,2E1,2.93E-1,5.08E1,7.5E-1,2.6E-1,3.9E-1,4.09E-1,2E1,7.5E-1,4.53E1,5.85E-1,5.8E-2,1.843E1,4.53E1,3.8E-1,4.09E-1,5.85E-1,2.93E-1,3.9E-1,2.6E-1,5.59E1,5.59E1,2.2997618E1,2.93E-1,2E1,2.93E-1,7.5E-1,-7.41986E1,-2.4125677E1,-2.086442E0,1.9728662E1,-4.150348E0,2.434618E1,-2.0062756E1,-3.1656096E0,-9.302744E0,4.553892E0,-2.2578817E1,-5.887905E0,-4.0041912E1,-1.0048575E1,-1.0069071E1,-2.2275347E1,1.8530035E1,8.1047735E0,2.1511333E0,-1.1613627E1,1.6905886E1,4.1695375E0,-2.0088278E1,-5.405707E0,2.7247223E1,1.2779981E1,-2.2064043E1,-7.869214E0,-8.160682E0,3.3959796E0],"split_indices":[5,2,0,6,1,6,2,4,0,0,7,1,5,2,7,6,4,2,7,7,7,6,0,0,2,2,0,6,1,6,5,0,0,0,0,0,0,0,0,0,0,0,0,0,0,0,0,0,0,0,0,0,0,0,0,0,0,0,0,0,0],"split_type":[0,0,0,0,0,0,0,0,0,0,0,0,0,0,0,0,0,0,0,0,0,0,0,0,0,0,0,0,0,0,0,0,0,0,0,0,0,0,0,0,0,0,0,0,0,0,0,0,0,0,0,0,0,0,0,0,0,0,0,0,0],"sum_hessian":[6.21E2,2.83E2,3.38E2,2.16E2,6.7E1,2.53E2,8.5E1,1.5E1,2.01E2,3.1E1,3.6E1,1.83E2,7E1,4.3E1,4.2E1,1.1E1,4E0,5.4E1,1.47E2,1.6E1,1.5E1,1.8E1,1.8E1,1.01E2,8.2E1,3.6E1,3.4E1,2.2E1,2.1E1,3E1,1.2E1,3E0,8E0,2E0,2E0,1.5E1,3.9E1,4.2E1,1.05E2,1E1,6E0,1.1E1,4E0,1.6E1,2E0,8E0,1E1,3.4E1,6.7E1,6.1E1,2.1E1,2.9E1,7E0,1.5E1,7E0,1.2E1,9E0,1.7E1,1.3E1,7E0,5E0],"tree_param":{"num_deleted":"0","num_feature":"8","num_nodes":"61","size_leaf_vector":"1"}},{"base_weights":[-2.8740318E0,-3.9523525E1,1.0057162E2,-5.062388E0,-1.478287E2,2.1145763E2,6.3990875E1,-3.9386856E1,1.0241256E2,-1.9354242E2,-3.391315E1,2.111301E1,2.58384E2,1.0089382E2,-4.997261E1,2.1478983E1,-1.0322711E2,1.6486153E2,3.75819E1,-2.5000772E2,-8.756751E1,4.511894E1,-1.10950356E2,1.3706177E1,-1.0513306E1,3.0646942E2,1.6453076E2,2.431849E1,1.4192116E2,1.2647754E1,-1.0228631E2,8.395446E0,-1.3158966E0,-1.3599289E1,7.3318787E0,2.4524145E1,1.1304224E1,9.850417E0,-1.4752574E0,-2.2470314E1,-4.023416E1,-1.2576858E1,-3.765433E0,-1.2724186E1,2.1246653E1,-1.4739118E1,-6.218172E0,-1.7020509E-1,-1.8899049E0,4.025085E1,2.2379387E1,9.525645E0,2.5631836E1,-2.7997844E0,1.3625244E1,2.0963821E1,5.9969997E0,-1.4217366E1,4.7402873E0,-4.6779175E0,-1.9625286E1],"categories":[],"categories_nodes":[],"categories_segments":[],"categories_sizes":[],"default_left":[0,0,0,0,0,0,0,0,0,0,0,0,0,0,0,0,0,0,0,0,0,0,0,0,0,0,0,0,0,0,0,0,0,0,0,0,0,0,0,0,0,0,0,0,0,0,0,0,0,0,0,0,0,0,0,0,0,0,0,0,0],"id":28,"left_children":[1,3,5,7,9,11,13,15,17,19,21,23,25,27,29,31,33,35,37,39,41,43,45,-1,47,49,51,53,55,57,59,-1,-1,-1,-1,-1,-1,-1,-1,-1,-1,-1,-1,-1,-1,-1,-1,-1,-1,-1,-1,-1,-1,-1,-1,-1,-1,-1,-1,-1,-1],"loss_changes":[2.3621205E6,1.7161185E6,6.476444E5,1.2951908E6,5.7146925E5,3.5183175E5,5.2653494E5,1.035811E6,3.3793588E5,4.50836E5,2.0592353E5,3.444426E4,9.39915E4,2.9186675E5,1.0284667E5,2.975758E5,7.6197725E5,1.5138225E5,1.3855161E5,1.0618475E5,5.055964E4,5.173854E5,2.1046828E4,0E0,5.5894415E2,6.872275E4,5.824478E4,2.0291788E5,3.2594712E5,8.7451984E4,7.948828E4,0E0,0E0,0E0,0E0,0E0,0E0,0E0,0E0,0E0,0E0,0E0,0E0,0E0,0E0,0E0,0E0,0E0,0E0,0E0,0E0,0E0,0E0,0E0,0E0,0E0,0E0,0E0,0E0,0E0,0E0],"parents":[2147483647,0,0,1,1,2,2,3,3,4,4,5,5,6,6,7,7,8,8,9,9,10,10,11,11,12,12,13,13,14,14,15,15,16,16,17,17,18,18,19,19,20,20,21,21,22,22,24,24,25,25,26,26,27,27,28,28,29,29,30,30],"right_children":[2,4,6,8,10,12,14,16,18,20,22,24,26,28,30,32,34,36,38,40,42,44,46,-1,48,50,52,54,56,58,60,-1,-1,-1,-1,-1,-1,-1,-1,-1,-1,-1,-1,-1,-1,-1,-1,-1,-1,-1,-1,-1,-1,-1,-1,-1,-1,-1,-1,-1,-1],"split_conditions":[7.5E-1,5.6E-1,2.6E-1,3.8E-1,2.93E-1,4.53E1,5.59E1,2E1,2.5E1,5.85E-1,5.08E1,3.8E-1,5.59E1,4.53E1,2E1,2.6E-1,7.07E-1,2.6E-1,5.08E1,3.75E1,7.07E-1,4.53E1,5.85E-1,1.3706177E1,4.09E-1,4.09E-1,2.93E-1,2.93E-1,5.08E1,3.8E-1,5.6E-1,8.395446E0,-1.3158966E0,-1.3599289E1,7.3318787E0,2.4524145E1,1.1304224E1,9.850417E0,-1.4752574E0,-2.2470314E1,-4.023416E1,-1.2576858E1,-3.765433E0,-1.2724186E1,2.1246653E1,-1.4739118E1,-6.218172E0,-1.7020509E-1,-1.8899049E0,4.025085E1,2.2379387E1,9.525645E0,2.5631836E1,-2.7997844E0,1.3625244E1,2.0963821E1,5.9969997E0,-1.4217366E1,4.7402873E0,-4.6779175E0,-1.9625286E1],"split_indices":[5,0,0,6,6,2,2,1,1,7,2,7,2,2,1,0,7,0,2,1,7,2,5,0,7,7,6,6,2,7,0,0,0,0,0,0,0,0,0,0,0,0,0,0,0,0,0,0,0,0,0,0,0,0,0,0,0,0,0,0,0],"split_type":[0,0,0,0,0,0,0,0,0,0,0,0,0,0,0,0,0,0,0,0,0,0,0,0,0,0,0,0,0,0,0,0,0,0,0,0,0,0,0,0,0,0,0,0,0,0,0,0,0,0,0,0,0,0,0,0,0,0,0,0,0],"sum_hessian":[6.21E2,4.59E2,1.62E2,3.49E2,1.1E2,3.9E1,1.23E2,2.65E2,8.4E1,7.8E1,3.2E1,8E0,3.1E1,9.3E1,3E1,1.36E2,1.29E2,4.2E1,4.2E1,5E1,2.8E1,1.6E1,1.6E1,1E0,7E0,1.9E1,1.2E1,3.3E1,6E1,1.4E1,1.6E1,4.8E1,8.8E1,1.09E2,2E1,1.5E1,2.7E1,1.9E1,2.3E1,4.5E1,5E0,1.5E1,1.3E1,8E0,8E0,8E0,8E0,4E0,3E0,7E0,1.2E1,8E0,4E0,2.3E1,1E1,3.2E1,2.8E1,2E0,1.2E1,1.1E1,5E0],"tree_param":{"num_deleted":"0","num_feature":"8","num_nodes":"61","size_leaf_vector":"1"}},{"base_weights":[-2.4790087E0,-6.4791985E1,4.9731506E1,-2.7580925E1,-1.8258623E2,8.05766E1,-4.1947403E1,-2.5297998E2,-9.590994E0,-1.5566391E2,-3.949573E1,1.2577614E2,2.5720463E1,2.4028986E1,-1.08482605E2,-3.8300488E2,1.0967578E2,1.4567865E2,-6.7227745E1,-8.9375946E1,-2.1501587E2,4.904853E1,1.5112631E2,-1.3223362E1,1.2003273E2,-1.3718391E2,1.9147752E2,-1.3921146E2,-2.686131E1,-6.761376E1,-2.101676E1,-1.0407389E0,1.9320036E1,-4.1934204E0,2.1708181E1,-1.974673E1,-3.2442544E0,-1.2425161E1,9.6814233E-1,-2.2834623E1,-9.73627E0,7.9306626E0,-2.6929555E0,1.9110716E1,6.319204E0,-4.3423843E0,7.800777E0,1.4090372E1,5.5852003E0,-1.7316467E1,-4.8074403E0,7.676107E-1,2.0947386E1,-1.882459E1,-6.622346E0,-6.676581E0,3.0821574E0],"categories":[],"categories_nodes":[],"categories_segments":[],"categories_sizes":[],"default_left":[0,0,0,0,0,0,0,0,0,0,0,0,0,0,0,0,0,0,0,0,0,0,0,0,0,0,0,0,0,0,0,0,0,0,0,0,0,0,0,0,0,0,0,0,0,0,0,0,0,0,0,0,0,0,0,0,0],"id":29,"left_children":[1,3,5,7,9,11,13,15,17,19,-1,21,23,25,27,29,31,33,35,37,39,41,43,45,47,49,51,53,55,-1,-1,-1,-1,-1,-1,-1,-1,-1,-1,-1,-1,-1,-1,-1,-1,-1,-1,-1,-1,-1,-1,-1,-1,-1,-1,-1,-1],"loss_changes":[2.0268322E6,1.2398069E6,9.6201944E5,8.7748994E5,3.2731075E5,6.265509E5,3.8012544E5,7.964749E5,1.8175398E6,2.2471075E5,0E0,2.629505E5,4.2764138E5,1.2140416E6,1.0411009E5,4.65869E5,5.2160184E4,7.458916E5,6.6409425E5,1.08298375E5,2.7955125E4,8.489794E4,3.5355475E5,2.3207097E5,3.767375E4,6.541847E4,7.116256E4,9.848044E4,3.1981312E4,0E0,0E0,0E0,0E0,0E0,0E0,0E0,0E0,0E0,0E0,0E0,0E0,0E0,0E0,0E0,0E0,0E0,0E0,0E0,0E0,0E0,0E0,0E0,0E0,0E0,0E0,0E0,0E0],"parents":[2147483647,0,0,1,1,2,2,3,3,4,4,5,5,6,6,7,7,8,8,9,9,11,11,12,12,13,13,14,14,15,15,16,16,17,17,18,18,19,19,20,20,21,21,22,22,23,23,24,24,25,25,26,26,27,27,28,28],"right_children":[2,4,6,8,10,12,14,16,18,20,-1,22,24,26,28,30,32,34,36,38,40,42,44,46,48,50,52,54,56,-1,-1,-1,-1,-1,-1,-1,-1,-1,-1,-1,-1,-1,-1,-1,-1,-1,-1,-1,-1,-1,-1,-1,-1,-1,-1,-1,-1],"split_conditions":[6.3E-1,5.59E1,5.6E-1,2.02E-1,3.75E1,2E1,5.08E1,7.5E-1,2.6E-1,3.9E-1,-3.949573E1,4.53E1,2.93E-1,4.53E1,5.85E-1,5.8E-2,1.843E1,4.53E1,3.8E-1,2.93E-1,7.07E-1,5.85E-1,5.59E1,7.07E-1,5.59E1,2.93E-1,3.8E-1,2.93E-1,7.5E-1,-6.761376E1,-2.101676E1,-1.0407389E0,1.9320036E1,-4.1934204E0,2.1708181E1,-1.974673E1,-3.2442544E0,-1.2425161E1,9.6814233E-1,-2.2834623E1,-9.73627E0,7.9306626E0,-2.6929555E0,1.9110716E1,6.319204E0,-4.3423843E0,7.800777E0,1.4090372E1,5.5852003E0,-1.7316467E1,-4.8074403E0,7.676107E-1,2.0947386E1,-1.882459E1,-6.622346E0,-6.676581E0,3.0821574E0],"split_indices":[5,2,0,6,1,1,2,4,0,0,0,2,6,2,7,6,4,2,5,6,7,7,2,7,2,6,7,6,5,0,0,0,0,0,0,0,0,0,0,0,0,0,0,0,0,0,0,0,0,0,0,0,0,0,0,0,0],"split_type":[0,0,0,0,0,0,0,0,0,0,0,0,0,0,0,0,0,0,0,0,0,0,0,0,0,0,0,0,0,0,0,0,0,0,0,0,0,0,0,0,0,0,0,0,0,0,0,0,0,0,0,0,0,0,0,0,0],"sum_hessian":[6.21E2,2.83E2,3.38E2,2.16E2,6.7E1,2.53E2,8.5E1,1.5E1,2.01E2,6.1E1,6E0,1.38E2,1.15E2,4.3E1,4.2E1,1.1E1,4E0,5.4E1,1.47E2,3E1,3.1E1,3.5E1,1.03E2,8.2E1,3.3E1,2.2E1,2.1E1,3E1,1.2E1,3E0,8E0,2E0,2E0,1.5E1,3.9E1,3E1,1.17E2,2.2E1,8E0,2.7E1,4E0,2.5E1,1E1,7E1,3.3E1,6.2E1,2E1,2.4E1,9E0,1.5E1,7E0,2E0,1.9E1,1.7E1,1.3E1,7E0,5E0],"tree_param":{"num_deleted":"0","num_feature":"8","num_nodes":"57","size_leaf_vector":"1"}},{"base_weights":[-2.4481719E0,-3.377299E1,8.596818E1,-2.1004284E1,-2.5510834E2,1.8521483E2,5.3259842E1,2.8074076E1,-7.5434326E1,-3.21795E1,-1.4098032E2,1.6484158E1,2.2688237E2,8.520738E1,-4.5331417E1,-3.037777E2,3.985318E1,-4.037488E1,-1.7159178E2,1.233689E2,-2.5553238E2,1.2624341E1,-1.3016174E1,2.6772958E2,1.46588E2,1.2611569E2,3.1556246E1,9.500131E0,-9.104564E1,-4.951972E1,1.803205E1,-4.5755587E0,6.88343E0,-7.741113E0,4.480072E0,-1.9222692E1,-4.4764814E0,1.9714876E1,-4.8985353E0,-1.1054704E1,-2.854363E1,-6.6875976E-1,-1.7672852E0,3.570578E1,1.9216381E1,8.3376465E0,2.3105118E1,3.9182725E0,1.6607897E1,8.755679E0,-2.7980146E-1,-5.4006295E0,8.979408E0,-4.301648E0,-1.7192968E1],"categories":[],"categories_nodes":[],"categories_segments":[],"categories_sizes":[],"default_left":[0,0,0,0,0,0,0,0,0,0,0,0,0,0,0,0,0,0,0,0,0,0,0,0,0,0,0,0,0,0,0,0,0,0,0,0,0,0,0,0,0,0,0,0,0,0,0,0,0,0,0,0,0,0,0],"id":30,"left_children":[1,3,5,7,9,11,13,15,17,-1,19,21,23,25,27,29,31,33,35,37,39,-1,41,43,45,47,49,51,53,-1,-1,-1,-1,-1,-1,-1,-1,-1,-1,-1,-1,-1,-1,-1,-1,-1,-1,-1,-1,-1,-1,-1,-1,-1,-1],"loss_changes":[1.725611E6,1.2946784E6,5.19265E5,1.1668208E6,1.449035E5,2.7748362E5,3.944314E5,9.1115725E5,6.909159E5,0E0,3.64624E5,3.0784617E4,6.570775E4,2.0232931E5,7.856898E4,8.306206E5,5.564209E5,4.8611956E5,1.3533512E5,6.05225E4,3.1309375E3,0E0,1.17572266E2,6.63895E4,5.0143375E4,1.7762119E5,8.1047E4,8.133717E4,5.8645656E4,0E0,0E0,0E0,0E0,0E0,0E0,0E0,0E0,0E0,0E0,0E0,0E0,0E0,0E0,0E0,0E0,0E0,0E0,0E0,0E0,0E0,0E0,0E0,0E0,0E0,0E0],"parents":[2147483647,0,0,1,1,2,2,3,3,4,4,5,5,6,6,7,7,8,8,10,10,11,11,12,12,13,13,14,14,15,15,16,16,17,17,18,18,19,19,20,20,22,22,23,23,24,24,25,25,26,26,27,27,28,28],"right_children":[2,4,6,8,10,12,14,16,18,-1,20,22,24,26,28,30,32,34,36,38,40,-1,42,44,46,48,50,52,54,-1,-1,-1,-1,-1,-1,-1,-1,-1,-1,-1,-1,-1,-1,-1,-1,-1,-1,-1,-1,-1,-1,-1,-1,-1,-1],"split_conditions":[7.5E-1,3.75E1,2.6E-1,3.9E-1,7.5E-1,4.53E1,5.59E1,6.5E-2,5.59E1,-3.21795E1,2.6E-1,3.8E-1,5.59E1,2E1,2E1,1.843E1,4.58E1,2.93E-1,7.07E-1,5.59E1,5.08E1,1.2624341E1,4.09E-1,4.09E-1,2.93E-1,4.53E1,3.9E-1,4.09E-1,5.6E-1,-4.951972E1,1.803205E1,-4.5755587E0,6.88343E0,-7.741113E0,4.480072E0,-1.9222692E1,-4.4764814E0,1.9714876E1,-4.8985353E0,-1.1054704E1,